{
"has_gp_model": 1,
"booster_str": "tree\nversion=v3\nnum_class=1\nnum_tree_per_iteration=1\nlabel_index=0\nmax_feature_idx=12\nobjective=regression\nfeature_names=Column_0 Column_1 Column_2 Column_3 Column_4 Column_5 Column_6 Column_7 Column_8 Column_9 Column_10 Column_11 Column_12\nfeature_infos=[1:4] [139:170] [1:4] [4:10] [0:3] [0:1] [0:1] [0.10000000000000001:1] [0:1] [0:1] [0:1] [0:1] [0:1]\ntree_sizes=1389 1498 1458 1475 1460 1456 1494 1423 1464 1457 1477 1485 1440 1466 1476 1454 1474 1432 1478 1477 1462 1428 1480 1460 1481 1495 1472 1432 1474 1466 1473 1446 1459 1473 1458 1490 1446 1468 1436 1437 1438 1457 1456 1492 1470 1453 1434 1472 1480 1500 1479 1468 1480 1450 1479 1444 1488 1471 1496 1459 1479 1505 1475 1436 1426 1481 1469 1483 1447 1504 1474 1475 1465 1505 1474 1484 1445 1461 1494 1470 1460 1467 1480 1464 1476 1465 1456 1441 1480 1434 1459 1442 1502 1490 1482 1496 1488 1498 1484 1455 1485 1453 1477 1436 1486 1454 1492 1478 1499 1459 1456 1485 1493 1489 1498 1498 1468 1473 1495 1463 1493 1486 1490 1478 1492 1495 1484 1459 1509 1492 1461 1503 1477 1496 1485 1474 1518 1495 1472 1502 1480 1506 1490 1509 1488 1521 1491 1480 1510 1439 1472 1512 1498 1481 1515 1428 1498 1507 1434 1454 1474 1493 1495 1482 1493 1484 1498 1494 1511 1471 1513 1459 1507 1480 1505 1495 1503 1497 1475 1498 1448 1501 1499 1512 1480 1478 1514 1484 1483 1482 1481 1470 1478 1442 1513 1473 1505 1506 1496 1467 1480 1502 1480 1489 1471 1461 1437 1476 1495 1491 1483 1489 1484 1481 1503 1481 1463 1495 1452 1468 1480 1486 1491 1453 1468 1464 1468 1468 1515 1483 1477 1442 1459 1436 1484 1455 1476 1471 1490 1456 1485 1467 1493 1495 1476 1469 1483 1462 1486 1488 1497 1460 1484 1447 1491 1439 1472 1475 1489 1487 1464 1495 1494 1487 1486 1458 1473 1492 1491 1485 1510 1455 1474 1460 1472 1457 1496 1455 1496 1505 1442 1459 1487 1497 1500 1485 1510 1454 1455 1501 1451 1455 1480 1500 1472 1499 1494 1480 1488 1495\n\nTree=0\nnum_leaves=15\nnum_cat=0\nsplit_feature=7 11 2 0 5 6 7 0 2 12 0 5 0 0\nsplit_gain=72.7966 12.8124 7.68944 5.94174 5.12555 3.35234 3.2284 2.79466 2.56579 1.96113 1.33282 0.909481 0.870088 0.979917\nthreshold=1.0000000180025095e-35 1.0000000180025095e-35 2.5000000000000004 3.8050000000000002 inf inf 0.70000000000000007 3.0150000000000001 3.5000000000000004 1.0000000180025095e-35 3.5150000000000001 1.0000000180025095e-35 3.8450000000000002 3.9545000000000008\ndecision_type=10 2 8 10 8 8 8 8 8 2 10 8 10 10\nleft_child=1 3 5 4 -1 11 -4 -6 -9 -3 -10 -2 -5 -14\nright_child=2 9 6 12 7 -7 -8 8 10 -11 -12 -13 13 -15\nleaf_value=0.71610376457913094 0.71444288295402347 0.72085059040130628 0.71937265564062858 0.72241847923578228 0.7085339848244524 0.72905537717999447 0.72393267705379172 0.7238831361100464 0.71282267148571898 0.73689993449872637 0.71502064102192764 0.72363680856091395 0.7166987543452783 0.72009700794676168\nleaf_weight=2742 29 27 587 127 291 925 1169 59 2369 75 998 234 549 344\nleaf_count=2742 29 27 587 127 291 925 1169 59 2369 75 998 234 549 344\ninternal_value=0.717858 0.715262 0.724524 0.71502 0.71446 0.727635 0.722413 0.71325 0.713654 0.73277 0.713472 0.722595 0.718562 0.718003\ninternal_weight=0 7581 2944 7479 6459 1188 1756 3717 3426 102 3367 263 1020 893\ninternal_count=10525 7581 2944 7479 6459 1188 1756 3717 3426 102 3367 263 1020 893\nis_linear=0\nshrinkage=1\n\n\nTree=1\nnum_leaves=15\nnum_cat=0\nsplit_feature=7 3 0 0 7 1 12 0 0 1 4 0 3 5\nsplit_gain=71.8559 12.6418 5.76952 3.79375 3.29147 2.14733 2.01631 1.86285 1.80413 1.35164 1.33826 1.16959 1.03925 0.930664\nthreshold=1.0000000180025095e-35 4.5000000000000009 3.5205000000000006 3.8050000000000002 0.70000000000000007 160.50000000000003 1.0000000180025095e-35 3.0050000000000003 3.7150000000000003 162.50000000000003 1.0000000180025095e-35 3.7705000000000006 4.5000000000000009 1.0000000180025095e-35\ndecision_type=10 10 8 10 8 10 2 10 8 10 2 8 8 8\nleft_child=1 2 5 6 -2 7 11 -1 -8 13 12 -4 -6 -5\nright_child=4 -3 3 9 10 -7 8 -9 -10 -11 -12 -13 -14 -15\nleaf_value=-0.0094498519396821259 0.0039862982457940319 0.017439755128330618 -0.0021620234628721121 -0.0052729850662520533 0.009676315909950715 0.003473810329236042 0.0033675454380349915 -0.0050002214524106367 -0.0020285487385795597 0.0051214761837339419 0.0091154406625774727 -0.0045065502933514376 0.0057709087255144505 0.00044859427730751801\nleaf_weight=302 853 77 824 77 218 62 164 1153 2407 146 940 1572 933 797\nleaf_count=302 853 77 824 77 218 62 164 1153 2407 146 940 1572 933 797\ninternal_value=0 -0.00257932 -0.00278771 -0.00208785 0.00662345 -0.00554329 -0.00265833 -0.00593308 -0.00168122 0.000685154 0.00769444 -0.00370358 0.00652269 -5.52167e-05\ninternal_weight=0 7581 7504 5987 2944 1517 4967 1455 2571 1020 2091 2396 1151 874\ninternal_count=10525 7581 7504 5987 2944 1517 4967 1455 2571 1020 2091 2396 1151 874\nis_linear=0\nshrinkage=0.05\n\n\nTree=2\nnum_leaves=15\nnum_cat=0\nsplit_feature=7 3 2 0 0 2 6 7 5 0 0 0 4 5\nsplit_gain=70.9594 12.3692 7.51988 5.65129 3.70937 3.29159 3.24765 3.13003 2.15152 2.02421 1.84929 1.53114 1.44146 0.889463\nthreshold=1.0000000180025095e-35 4.5000000000000009 2.5000000000000004 3.5205000000000006 3.8050000000000002 3.5000000000000004 inf 0.70000000000000007 inf 3.0050000000000003 3.7150000000000003 3.7705000000000006 1.0000000180025095e-35 1.0000000180025095e-35\ndecision_type=10 10 8 8 10 8 8 8 8 10 8 8 2 8\nleft_child=1 3 6 9 5 -5 13 -4 10 -1 -7 -10 -8 -2\nright_child=2 -3 7 4 -6 8 12 -9 11 -11 -12 -13 -14 -15\nleaf_value=-0.0091315921191138117 -0.0033639349215159571 0.0172389081187517 0.0015003255246507333 0.0076724338379992492 0.00066545621752344981 0.0033159536059924558 0.0092117204450443361 0.0059905813195689538 -0.0021517320942618292 -0.0045593868857033209 -0.0021480517370177582 -0.0048485759083781305 0.013303676814050383 0.0057271607724929431\nleaf_weight=308 29 77 587 75 1020 164 512 1169 824 1209 2393 1511 413 234\nleaf_count=308 29 77 587 75 1020 164 512 1169 824 1209 2393 1511 413 234\ninternal_value=0 -0.00256303 0.00658216 -0.00276916 -0.00207649 -0.00264058 0.00965795 0.00449412 -0.00280125 -0.00549639 -0.00179449 -0.00390035 0.0110565 0.00469684\ninternal_weight=0 7581 2944 7504 5987 4967 1188 1756 4892 1517 2557 2335 925 263\ninternal_count=10525 7581 2944 7504 5987 4967 1188 1756 4892 1517 2557 2335 925 263\nis_linear=0\nshrinkage=0.05\n\n\nTree=3\nnum_leaves=15\nnum_cat=0\nsplit_feature=7 3 2 0 0 2 7 5 1 5 0 0 0 1\nsplit_gain=70.0462 12.1035 7.39655 5.53613 3.62875 3.23637 3.07589 2.10401 2.09995 1.94892 1.80726 1.78285 1.4943 1.32788\nthreshold=1.0000000180025095e-35 4.5000000000000009 2.5000000000000004 3.5205000000000006 3.8050000000000002 3.5000000000000004 0.70000000000000007 inf 160.50000000000003 1.0000000180025095e-35 3.7150000000000003 3.0050000000000003 3.7705000000000006 162.50000000000003\ndecision_type=10 10 8 8 10 8 8 8 10 8 8 8 8 10\nleft_child=1 3 9 8 5 -5 -4 10 11 -2 -7 -1 -9 -6\nright_child=2 -3 6 4 13 7 -8 12 -10 -11 -12 -13 -14 -15\nleaf_value=-0.0092761277013261954 0.00012019514399512404 0.017041651004214575 0.0015009834969833364 0.007603419908385655 -8.6477301467447515e-05 0.0032656215421301552 0.0059524187744835356 -0.0021411521613789414 0.0034669029038766289 0.010027667229467239 -0.0021357603254377332 -0.0049221598693462865 -0.0048056177907019023 0.0050446772377631408\nleaf_weight=302 53 77 587 75 874 164 1169 824 62 1135 2393 1153 1511 146\nleaf_count=302 53 77 587 75 874 164 1169 824 62 1135 2393 1153 1511 146\ninternal_value=0 -0.00254631 0.00653984 -0.00275022 -0.00206462 -0.00262256 0.00446893 -0.00278188 -0.00544955 0.00959035 -0.00178623 -0.00583505 -0.00386881 0.000647306\ninternal_weight=0 7581 2944 7504 5987 4967 1756 4892 1517 1188 2557 1455 2335 1020\ninternal_count=10525 7581 2944 7504 5987 4967 1756 4892 1517 1188 2557 1455 2335 1020\nis_linear=0\nshrinkage=0.05\n\n\nTree=4\nnum_leaves=15\nnum_cat=0\nsplit_feature=2 0 4 3 6 0 5 0 4 3 5 0 5 3\nsplit_gain=58.6054 10.4634 8.15214 4.21279 3.58194 2.19062 2.00191 1.95486 1.67332 1.4813 1.39646 1.17599 0.96883 0.947117\nthreshold=3.5000000000000004 3.5205000000000006 1.0000000180025095e-35 1.0000000180025095e-35 inf 3.8050000000000002 1.0000000180025095e-35 3.0050000000000003 1.0000000180025095e-35 4.5000000000000009 1.0000000180025095e-35 3.7705000000000006 inf 8.0000000000000018\ndecision_type=8 8 2 10 8 10 10 10 2 10 10 10 8 10\nleft_child=4 7 3 5 -1 11 -5 -2 10 -8 -6 -3 -9 -4\nright_child=1 2 13 6 8 -7 9 12 -10 -11 -12 -13 -14 -15\nleaf_value=0.0043222892305740295 -0.0088960818340948333 -0.0017438383122038781 0.0063382728368540772 0.00099280481172062747 0.0073427309345093202 0.00062858664685197312 0.002852766276437295 -0.00084462692766837854 0.012485021312948506 0.012986413060870828 0.012614920074082301 -0.0056168394490039289 -0.0049773329191791851 -0.0034441841523862957\nleaf_weight=332 309 5391 420 242 545 1020 69 168 501 80 172 204 1047 25\nleaf_count=332 309 5391 420 242 545 1020 69 168 501 80 172 204 1047 25\ninternal_value=0 -0.00155498 -0.000781768 -0.00119946 0.00897054 -0.00149825 0.00383379 -0.00532903 0.0102289 0.00837729 0.00863024 -0.00188692 -0.00441117 0.005771\ninternal_weight=0 8975 7451 7006 1550 6615 391 1524 1218 149 717 5595 1215 445\ninternal_count=10525 8975 7451 7006 1550 6615 391 1524 1218 149 717 5595 1215 445\nis_linear=0\nshrinkage=0.05\n\n\nTree=5\nnum_leaves=15\nnum_cat=0\nsplit_feature=2 0 4 3 6 0 1 5 0 4 3 1 5 0\nsplit_gain=57.7376 10.2731 8.03102 4.14522 3.48257 2.13867 2.09207 1.95721 1.71355 1.63972 1.44696 1.42172 1.35939 1.35479\nthreshold=3.5000000000000004 3.5205000000000006 1.0000000180025095e-35 inf inf 3.8050000000000002 160.50000000000003 1.0000000180025095e-35 3.0050000000000003 1.0000000180025095e-35 4.5000000000000009 168.50000000000003 1.0000000180025095e-35 3.7705000000000006\ndecision_type=8 8 2 8 8 10 10 10 10 2 10 10 10 10\nleft_child=4 6 3 7 -1 11 8 -3 -2 12 -9 13 -6 -5\nright_child=1 2 -4 5 9 -7 -8 10 -10 -11 -12 -13 -14 -15\nleaf_value=0.0043199275985403296 -0.0090373723842001666 0.00099159551523332634 0.0057268066839795155 -0.0018117370763198676 0.0072912012908589721 0.00061336699462229247 0.0035446797357529605 0.0028320914548675457 -0.0047763402876749668 0.01237868862983265 0.012849353724062021 0.0049505017927592848 0.012494711904850542 -0.0060180510017236403\nleaf_weight=332 303 242 445 5322 545 1020 63 69 1158 501 80 74 172 199\nleaf_count=332 303 242 445 5322 545 1020 63 69 1158 501 80 74 172 199\ninternal_value=0 -0.00154323 -0.000777079 -0.00119166 0.00890407 -0.00148805 -0.00528281 0.00380102 -0.00566904 0.0101449 0.00829363 -0.00187209 0.00856209 -0.00196532\ninternal_weight=0 8975 7451 7006 1550 6615 1524 391 1461 1218 149 5595 717 5521\ninternal_count=10525 8975 7451 7006 1550 6615 1524 391 1461 1218 149 5595 717 5521\nis_linear=0\nshrinkage=0.05\n\n\nTree=6\nnum_leaves=15\nnum_cat=0\nsplit_feature=7 11 2 0 12 7 2 0 12 1 1 0 1 0\nsplit_gain=67.6843 11.5248 7.02128 5.25238 4.64378 2.99935 2.53881 2.25326 1.76308 1.69293 1.31203 1.18626 0.895594 0.981769\nthreshold=1.0000000180025095e-35 1.0000000180025095e-35 2.5000000000000004 3.8050000000000002 1.0000000180025095e-35 0.70000000000000007 3.5000000000000004 3.0150000000000001 1.0000000180025095e-35 168.50000000000003 162.50000000000003 3.5150000000000001 154.50000000000003 3.7015000000000007\ndecision_type=10 2 8 10 2 10 8 8 2 10 10 10 8 8\nleft_child=1 3 -2 4 6 -4 -1 -8 -3 12 -5 -9 -6 -14\nright_child=2 8 5 10 9 -7 7 11 -10 -11 -12 -13 13 -15\nleaf_value=0.0057715518256621625 0.0094015097041523568 0.0027919544815315483 0.00148036444045382 -0.0001311003084641756 -0.0072693934618256115 0.0058762193292208401 -0.0088130211591319878 -0.0048198384426296195 0.018018738089363162 0.005968687613056042 0.0049696071383440931 -0.0027449973306315351 0.001115244121064378 -0.0020655904478706667\nleaf_weight=59 1188 27 587 874 75 1169 291 2369 75 69 146 998 268 2330\nleaf_count=59 1188 27 587 874 75 1169 291 2369 75 69 146 998 268 2330\ninternal_value=0 -0.00250244 0.00642921 -0.00273143 -0.00325804 0.00441129 -0.00441027 -0.00457739 0.0141029 -0.00169324 0.000598256 -0.00420732 -0.00189505 -0.00173524\ninternal_weight=0 7581 2944 7479 6459 1756 3717 3658 102 2742 1020 3367 2673 2598\ninternal_count=10525 7581 2944 7479 6459 1756 3717 3658 102 2742 1020 3367 2673 2598\nis_linear=0\nshrinkage=0.05\n\n\nTree=7\nnum_leaves=15\nnum_cat=0\nsplit_feature=7 3 2 1 2 7 6 5 5 4 1 5 1 3\nsplit_gain=66.8282 11.2862 6.91298 3.83661 3.1002 2.94752 2.93996 2.18865 1.71688 1.35468 1.20989 0.847949 0.782981 0.695857\nthreshold=1.0000000180025095e-35 1.0000000180025095e-35 2.5000000000000004 161.50000000000003 3.5000000000000004 0.70000000000000007 inf inf inf 1.0000000180025095e-35 153.50000000000003 1.0000000180025095e-35 167.50000000000003 4.5000000000000009\ndecision_type=10 10 8 10 8 10 8 8 8 2 8 8 10 8\nleft_child=1 3 6 4 -1 -4 11 10 -3 13 -6 -2 -5 -8\nright_child=2 8 5 12 7 -7 9 -9 -10 -11 -12 -13 -14 -15\nleaf_value=0.007615734148643318 -0.0032533605422700217 0.0178106753742132 0.00148060598768288 -1.7634934947583648e-05 -0.0078262889544094324 0.0058384998430504424 0.012343252084864476 -0.0037983515395521293 0.0027799868672688318 0.012847926690615873 -0.0017749127135333255 0.0056207027995827039 0.0042403180148491591 0.0077901270611318409\nleaf_weight=67 29 75 587 243 85 1169 119 4298 27 413 2596 234 190 393\nleaf_count=67 29 75 587 243 85 1169 119 4298 27 413 2596 234 190 393\ninternal_value=0 -0.00248638 0.00638861 -0.00271299 -0.002994 0.00438625 0.00933794 -0.00309765 0.0139461 0.0106691 -0.00197148 0.00461464 0.0018447 0.00888012\ninternal_weight=0 7581 2944 7479 7046 1756 1188 6979 102 925 2681 263 433 512\ninternal_count=10525 7581 2944 7479 7046 1756 1188 6979 102 925 2681 263 433 512\nis_linear=0\nshrinkage=0.05\n\n\nTree=8\nnum_leaves=15\nnum_cat=0\nsplit_feature=7 11 0 5 10 6 4 7 0 10 12 5 0 0\nsplit_gain=65.9761 11.0526 5.13296 4.48052 3.78113 2.78061 2.52209 2.49842 2.3847 2.11089 1.67187 1.54781 1.16349 0.85914\nthreshold=1.0000000180025095e-35 1.0000000180025095e-35 3.8050000000000002 inf 1.0000000180025095e-35 inf 1.0000000180025095e-35 0.70000000000000007 3.0150000000000001 1.0000000180025095e-35 1.0000000180025095e-35 1.0000000180025095e-35 3.5150000000000001 2.6050000000000004\ndecision_type=10 2 10 8 2 8 2 10 8 2 2 10 10 8\nleft_child=1 2 3 -1 7 -6 11 -2 13 12 -3 -7 -10 -5\nright_child=4 10 -4 8 5 6 -8 -9 9 -11 -12 -13 -14 -15\nleaf_value=-0.0016779956778055832 0.0014646060928955092 0.002768008158579068 0.00059704670970829902 -0.015164209310622843 0.0039348788496217568 0.0058674616653883972 0.01175995009841491 0.0059801496640548638 -0.0047592166666291895 0.0046640317249474691 0.01760511504905593 0.011419777264646307 -0.0027031851690594777 -0.0074460342266678128\nleaf_weight=2742 478 27 1020 45 338 564 524 873 2360 68 75 167 998 246\nleaf_count=2742 478 27 1020 45 338 564 524 873 2360 68 75 167 998 246\ninternal_value=0 -0.00247027 -0.00269453 -0.00321511 0.00634796 0.00800285 0.00909046 0.00438846 -0.00434693 -0.00397291 0.0137912 0.00715661 -0.00415064 -0.00870453\ninternal_weight=0 7581 7479 6459 2944 1593 1255 1351 3717 3426 102 731 3358 291\ninternal_count=10525 7581 7479 6459 2944 1593 1255 1351 3717 3426 102 731 3358 291\nis_linear=0\nshrinkage=0.05\n\n\nTree=9\nnum_leaves=15\nnum_cat=0\nsplit_feature=7 11 2 0 5 7 2 0 5 1 5 1 0 5\nsplit_gain=65.1187 10.8249 6.72881 5.0216 4.38209 2.85326 2.41388 2.16251 1.84625 1.63123 1.62829 1.26289 1.12502 0.892089\nthreshold=1.0000000180025095e-35 1.0000000180025095e-35 2.5000000000000004 3.8050000000000002 inf 0.70000000000000007 3.5000000000000004 3.0150000000000001 1.0000000180025095e-35 168.50000000000003 inf 162.50000000000003 3.5150000000000001 1.0000000180025095e-35\ndecision_type=10 2 8 10 8 10 8 8 8 10 8 10 10 8\nleft_child=1 3 8 4 9 -4 -6 -8 -2 -1 -3 13 -9 -5\nright_child=2 10 5 11 6 -7 7 12 -10 -11 -12 -13 -14 -15\nleaf_value=-0.0018687736881994972 8.2310242738175295e-08 0.01740322601007048 0.0014721058114470344 -0.005243358472170492 0.0056170578100768285 0.0057600454249759252 -0.0086228502037444862 -0.0047071551434900959 0.0096421711443387837 0.0058499810061914221 0.0027560617981069644 0.0048684679134563882 -0.002686116669457176 0.00035736704671757695\nleaf_weight=2673 53 75 587 77 59 1169 291 2369 1135 69 27 146 998 797\nleaf_count=2673 53 75 587 77 59 1169 291 2369 1135 69 27 146 998 797\ninternal_value=0 -0.00245399 0.00630674 -0.00267593 -0.00319084 0.00433116 -0.00431018 -0.00447315 0.00921658 -0.00167065 0.013639 0.000579688 -0.00411057 -0.000135775\ninternal_weight=0 7581 2944 7479 6459 1756 3717 3658 1188 2742 102 1020 3367 874\ninternal_count=10525 7581 2944 7479 6459 1756 3717 3658 1188 2742 102 1020 3367 874\nis_linear=0\nshrinkage=0.05\n\n\nTree=10\nnum_leaves=15\nnum_cat=0\nsplit_feature=7 3 2 0 0 2 7 1 5 5 0 0 0 1\nsplit_gain=64.2899 10.6046 6.62377 4.87563 3.20266 2.90534 2.80419 1.91301 1.87993 1.80305 1.72922 1.57018 1.35495 1.23849\nthreshold=1.0000000180025095e-35 4.5000000000000009 2.5000000000000004 3.5205000000000006 3.8050000000000002 3.5000000000000004 0.70000000000000007 160.50000000000003 inf 1.0000000180025095e-35 3.7150000000000003 3.0050000000000003 3.7705000000000006 162.50000000000003\ndecision_type=10 10 8 8 10 8 8 10 8 8 8 10 8 10\nleft_child=1 3 9 7 5 -5 -4 11 10 -2 -7 -1 -10 -6\nright_child=2 -3 6 4 13 8 -8 -9 12 -11 -12 -13 -14 -15\nleaf_value=-0.0087613269917610186 4.3348993081964324e-05 0.015896199853855725 0.0014720010741047934 0.007178239392541079 -0.00014651150831719142 0.0032221517434749217 0.0057230912788687515 0.0033456156666157645 -0.002042548825623592 0.0095743624813983946 -0.0020612053321744507 -0.0046729912818829124 -0.0045804095825169337 0.004809189344469781\nleaf_weight=302 53 77 587 75 874 164 1169 62 824 1135 2393 1153 1511 146\nleaf_count=302 53 77 587 75 874 164 1169 62 824 1135 2393 1153 1511 146\ninternal_value=0 -0.00243813 0.00626668 -0.00262902 -0.00198551 -0.00250966 0.00430652 -0.00516241 -0.00266065 0.00915376 -0.00171926 -0.00553044 -0.00368822 0.000561952\ninternal_weight=0 7581 2944 7504 5987 4967 1756 1517 4892 1188 2557 1455 2335 1020\ninternal_count=10525 7581 2944 7504 5987 4967 1756 1517 4892 1188 2557 1455 2335 1020\nis_linear=0\nshrinkage=0.05\n\n\nTree=11\nnum_leaves=15\nnum_cat=0\nsplit_feature=7 3 0 12 10 6 7 0 10 1 12 5 1 0\nsplit_gain=63.4725 10.4074 4.80516 4.2063 3.55111 2.66089 2.38104 2.23757 2.00714 1.59059 1.56298 1.55496 1.21477 1.07846\nthreshold=1.0000000180025095e-35 1.0000000180025095e-35 3.8050000000000002 1.0000000180025095e-35 1.0000000180025095e-35 inf 0.70000000000000007 3.0150000000000001 1.0000000180025095e-35 168.50000000000003 1.0000000180025095e-35 1.0000000180025095e-35 162.50000000000003 3.5150000000000001\ndecision_type=10 10 10 2 2 8 10 8 2 10 2 10 10 10\nleft_child=1 2 3 7 6 -6 -2 -1 13 -5 -3 -7 -4 -9\nright_child=4 10 12 9 5 11 -8 8 -10 -11 -12 -13 -14 -15\nleaf_value=-0.0084620795222218829 0.0014725823399100368 0.0026905620448845775 -0.00015702967194342147 -0.0018498940205972051 0.0038508896999239583 0.007787947111911585 0.0058814466523364776 -0.0046374175345777402 0.0045431712703490569 0.0057718675916926402 0.017045151483184289 0.01182769926235735 0.0047510230213490467 -0.0026570477797901015\nleaf_weight=291 478 27 874 2673 338 915 873 2360 68 69 75 340 146 998\nleaf_count=291 478 27 874 2673 338 915 873 2360 68 69 75 340 146 998\ninternal_value=0 -0.0024224 -0.00264002 -0.00314371 0.0062269 0.0078309 0.00432748 -0.00424039 -0.00387799 -0.00165424 0.013357 0.00889491 0.000544564 -0.00405131\ninternal_weight=0 7581 7479 6459 2944 1593 1351 3717 3426 2742 102 1255 1020 3358\ninternal_count=10525 7581 7479 6459 2944 1593 1351 3717 3426 2742 102 1255 1020 3358\nis_linear=0\nshrinkage=0.05\n\n\nTree=12\nnum_leaves=15\nnum_cat=0\nsplit_feature=7 11 0 5 7 6 0 1 5 4 1 1 0 0\nsplit_gain=62.6497 10.1951 4.69966 4.11538 2.77892 2.65253 2.19116 1.55631 1.5226 1.28606 1.19087 0.86991 0.936004 0.86815\nthreshold=1.0000000180025095e-35 1.0000000180025095e-35 3.8050000000000002 inf 0.70000000000000007 inf 3.0150000000000001 168.50000000000003 inf 1.0000000180025095e-35 162.50000000000003 154.50000000000003 3.7015000000000007 3.5205000000000006\ndecision_type=10 2 10 8 8 8 8 10 8 2 10 8 8 10\nleft_child=1 2 3 7 -2 -6 -5 11 -3 -7 -4 -1 13 -13\nright_child=4 8 10 6 5 9 -8 -9 -10 -11 -12 12 -14 -15\nleaf_value=-0.0071367794258134221 0.0037620392070717105 0.016851641143645804 -0.00016709286318102625 -0.0083826590734572531 0.0031355402793853447 0.0067631050645978802 -0.0038461095298510726 0.0056987373146942201 0.0026790299774096331 0.0095665068823317344 0.0046924918522483552 -0.001492183734144135 -0.0020052768366392378 0.0041842334976484345\nleaf_weight=75 853 75 874 291 346 1001 3426 69 27 744 146 145 2330 123\nleaf_count=75 853 75 874 291 346 1001 3426 69 27 744 146 145 2330 123\ninternal_value=0 -0.00240647 -0.00262187 -0.00311999 0.00618659 0.00717099 -0.00420478 -0.00164666 0.013211 0.00796602 0.000527512 -0.00184021 -0.00168269 0.00110032\ninternal_weight=0 7581 7479 6459 2944 2091 3717 2742 102 1745 1020 2673 2598 268\ninternal_count=10525 7581 7479 6459 2944 2091 3717 2742 102 1745 1020 2673 2598 268\nis_linear=0\nshrinkage=0.05\n\n\nTree=13\nnum_leaves=15\nnum_cat=0\nsplit_feature=2 4 0 3 6 0 5 0 4 3 5 0 3 3\nsplit_gain=51.866 9.33584 7.48762 3.52573 3.0121 1.79253 1.65653 1.6087 1.50245 1.22057 1.19574 1.09835 0.945536 0.945249\nthreshold=3.5000000000000004 1.0000000180025095e-35 3.5205000000000006 1.0000000180025095e-35 inf 3.8050000000000002 1.0000000180025095e-35 3.0050000000000003 1.0000000180025095e-35 4.5000000000000009 1.0000000180025095e-35 3.7705000000000006 8.0000000000000018 8.0000000000000018\ndecision_type=8 2 8 10 8 10 10 8 2 10 10 10 10 8\nleft_child=4 2 7 5 -1 11 -5 -2 10 -8 -6 -4 -3 -12\nright_child=1 12 3 6 8 -7 9 -9 -10 -11 13 -13 -14 -15\nleaf_value=0.0041742529926744347 -0.008250414166937876 0.0061175482467406093 -0.0016271151266517342 0.00087748180971042073 0.0068861065307068425 0.00050964762500860434 0.0025739479721104564 -0.0041765606435877579 0.011733415509641064 0.011782405752425026 0.0091077921559232205 -0.0053699593856326774 -0.0036533826937390347 0.017535521075252723\nleaf_weight=332 309 424 5391 242 545 1020 69 1211 501 80 120 204 25 52\nleaf_count=332 309 424 5391 242 545 1020 69 1211 501 80 120 204 25 52\ninternal_value=0 -0.0014612 -0.00183191 -0.00114045 0.00844065 -0.00141383 0.00346372 -0.0050129 0.00959509 0.00759701 0.00807972 -0.00176541 0.00555549 0.0117712\ninternal_weight=0 8975 8526 7006 1550 6615 391 1520 1218 149 717 5595 449 172\ninternal_count=10525 8975 8526 7006 1550 6615 391 1520 1218 149 717 5595 449 172\nis_linear=0\nshrinkage=0.05\n\n\nTree=14\nnum_leaves=15\nnum_cat=0\nsplit_feature=2 4 0 11 6 1 1 4 0 0 0 0 3 0\nsplit_gain=51.0985 9.19445 7.34547 3.47094 2.92985 1.82517 1.77496 1.47268 1.40639 1.30902 1.05066 1.02516 0.929046 0.827473\nthreshold=3.5000000000000004 1.0000000180025095e-35 3.5205000000000006 1.0000000180025095e-35 inf 160.50000000000003 167.50000000000003 1.0000000180025095e-35 3.0050000000000003 3.8050000000000002 3.7705000000000006 3.8450000000000002 8.0000000000000018 1.0000000180025095e-35\ndecision_type=8 2 8 2 8 10 10 2 8 10 10 8 10 10\nleft_child=4 2 5 6 -1 8 9 -6 -2 10 -4 -11 -3 -9\nright_child=1 12 3 -5 7 -7 -8 13 -10 11 -12 -13 -14 -15\nleaf_value=0.0041696214392469523 -0.0083815082472430483 0.0060703443085661814 -0.0016996155502980916 0.0034350562130883717 0.0080162358293098396 0.0033408401507609591 0.0035713881616471436 0.012122563856984825 -0.0045154860609144072 0.0044794439018634637 -0.005442741041050257 -0.00044823418265662202 -0.0036140083937825085 0.0027558696575676884\nleaf_weight=332 303 424 5306 391 717 62 173 474 1155 120 195 821 25 27\nleaf_count=332 303 424 5306 391 717 62 173 474 1155 120 195 821 25 27\ninternal_value=0 -0.00145015 -0.00181805 -0.00113317 0.00837816 -0.00496871 -0.00140442 0.00951685 -0.00532754 -0.00153936 -0.00183418 0.000178943 0.00551318 0.0116342\ninternal_weight=0 8975 8526 7006 1550 1520 6615 1218 1458 6442 5501 941 449 501\ninternal_count=10525 8975 8526 7006 1550 1520 6615 1218 1458 6442 5501 941 449 501\nis_linear=0\nshrinkage=0.05\n\n\nTree=15\nnum_leaves=15\nnum_cat=0\nsplit_feature=7 3 2 1 2 7 6 5 12 1 4 5 3 4\nsplit_gain=60.5519 9.76827 6.20263 3.39132 2.77026 2.66286 2.47626 2.41024 1.45195 1.25102 1.21786 0.788502 0.671178 0.651158\nthreshold=1.0000000180025095e-35 1.0000000180025095e-35 2.5000000000000004 167.50000000000003 3.5000000000000004 0.70000000000000007 inf inf 1.0000000180025095e-35 153.50000000000003 1.0000000180025095e-35 1.0000000180025095e-35 4.5000000000000009 1.0000000180025095e-35\ndecision_type=10 10 8 10 8 10 8 8 2 8 2 8 8 2\nleft_child=1 3 6 4 -1 13 11 9 -3 -6 12 -2 -8 -4\nright_child=2 8 5 -5 7 -7 10 -9 -10 -11 -12 -13 -14 -15\nleaf_value=0.0072814810296776894 -0.0030476309632743222 0.0026308045396997454 0.00059833966022020569 0.0039930644480109219 -0.0076823153749743427 0.0055661186342514171 0.011796506410900263 -0.0035932666044643626 0.016477235231361527 -0.0015407784930910843 0.012166361529209104 0.0055060340821499803 0.0073334872958840175 0.0048413758937452898\nleaf_weight=67 29 27 475 190 85 1169 119 4319 75 2818 413 234 393 112\nleaf_count=67 29 27 475 190 85 1169 119 4319 75 2818 413 234 393 112\ninternal_value=0 -0.00236525 0.00608271 -0.0025761 -0.00274855 0.00418568 0.00887665 -0.00284328 0.0129217 -0.00172491 0.0100992 0.00453594 0.00840151 0.00142327\ninternal_weight=0 7581 2944 7479 7289 1756 1188 7222 102 2903 925 263 512 587\ninternal_count=10525 7581 2944 7479 7289 1756 1188 7222 102 2903 925 263 512 587\nis_linear=0\nshrinkage=0.05\n\n\nTree=16\nnum_leaves=15\nnum_cat=0\nsplit_feature=2 4 0 11 6 1 0 5 4 0 1 0 3 1\nsplit_gain=49.6509 8.95389 7.15998 3.34929 2.77968 1.77272 1.71664 1.58241 1.4167 1.37558 1.19456 1.23871 1.16527 1.14511\nthreshold=3.5000000000000004 1.0000000180025095e-35 3.5205000000000006 1.0000000180025095e-35 inf 160.50000000000003 3.8050000000000002 1.0000000180025095e-35 1.0000000180025095e-35 3.0050000000000003 168.50000000000003 3.7705000000000006 4.5000000000000009 162.50000000000003\ndecision_type=8 2 8 2 8 10 10 10 2 10 10 10 10 10\nleft_child=4 2 5 6 -1 9 10 -5 -6 -2 11 -4 -9 -8\nright_child=1 -3 3 7 8 -7 13 12 -10 -11 -12 -13 -14 -15\nleaf_value=0.0041582836564074731 -0.0082768260681126121 0.0054425630041876069 -0.0016650715946551519 0.00084333398139946737 0.0078959362248322146 0.0032858599667013018 -0.00018115645565454911 0.0025014966836532449 0.011445816640139718 -0.0044532103661125942 0.0045257574953693775 -0.0056870935678849203 0.011501015881489839 0.0045841933471946136\nleaf_weight=332 303 449 5322 242 717 62 874 69 501 1155 74 199 80 146\nleaf_count=332 303 449 5322 242 717 62 874 69 501 1155 74 199 80 146\ninternal_value=0 -0.00142904 -0.0017921 -0.00111591 0.00825905 -0.00490273 -0.00138238 0.00337147 0.0093684 -0.00525639 -0.00172644 -0.00181195 0.00741125 0.000499867\ninternal_weight=0 8975 8526 7006 1550 1520 6615 391 1218 1458 5595 5521 149 1020\ninternal_count=10525 8975 8526 7006 1550 1520 6615 391 1218 1458 5595 5521 149 1020\nis_linear=0\nshrinkage=0.05\n\n\nTree=17\nnum_leaves=15\nnum_cat=0\nsplit_feature=7 11 2 0 5 7 6 2 0 5 0 4 0 0\nsplit_gain=59.1511 9.44593 5.9976 4.3523 3.87334 2.6066 2.34118 2.13368 1.91662 1.3933 1.29976 1.16654 0.812514 0.954521\nthreshold=1.0000000180025095e-35 1.0000000180025095e-35 2.5000000000000004 3.8050000000000002 inf 0.70000000000000007 inf 3.5000000000000004 2.6050000000000004 inf 3.5150000000000001 1.0000000180025095e-35 3.8450000000000002 3.9545000000000008\ndecision_type=10 2 8 10 8 10 8 8 8 8 10 2 10 10\nleft_child=1 3 6 4 -1 -4 -2 -6 -9 -3 -10 -8 -5 -14\nright_child=2 9 5 12 7 -7 11 8 10 -11 -12 -13 13 -15\nleaf_value=-0.0015945800313958139 0.0045369174647413224 0.016178670708224076 0.0014136058690191291 0.0042119323094014852 0.005254610496775905 0.0055126182930679401 0.0082861812398635614 -0.01443238302417086 -0.0046858281166269411 0.0026078432416692301 -0.0025469870136848229 0.011973243142189574 -0.0013411440610854094 0.0020134678798811941\nleaf_weight=2742 263 75 587 127 59 1169 512 45 2615 27 998 413 549 344\nleaf_count=2742 263 75 587 127 59 1169 512 45 2615 27 998 413 549 344\ninternal_value=0 -0.00233729 0.00601237 -0.00254465 -0.00302401 0.00414682 0.00875987 -0.00407643 -0.0042297 0.0126951 -0.00409728 0.00994896 0.00048594 -4.24864e-05\ninternal_weight=0 7581 2944 7479 6459 1756 1188 3717 3658 102 3613 925 1020 893\ninternal_count=10525 7581 2944 7479 6459 1756 1188 3717 3658 102 3613 925 1020 893\nis_linear=0\nshrinkage=0.05\n\n\nTree=18\nnum_leaves=15\nnum_cat=0\nsplit_feature=7 3 1 10 10 12 7 6 4 12 1 12 3 3\nsplit_gain=58.3884 9.25669 3.24967 2.99894 2.61274 2.26691 2.22603 2.21487 2.22315 1.35808 1.22113 1.1688 1.46545 0.988815\nthreshold=1.0000000180025095e-35 1.0000000180025095e-35 167.50000000000003 1.0000000180025095e-35 1.0000000180025095e-35 1.0000000180025095e-35 0.70000000000000007 inf 1.0000000180025095e-35 1.0000000180025095e-35 153.50000000000003 1.0000000180025095e-35 1.0000000180025095e-35 8.0000000000000018\ndecision_type=10 10 10 2 2 2 10 8 2 2 8 2 10 8\nleft_child=1 2 4 6 5 -1 -2 -5 11 -3 -7 12 -9 -13\nright_child=3 9 -4 7 -6 10 -8 8 -10 -11 -12 13 -14 -15\nleaf_value=-0.0035237643673037022 0.0014657011269150076 0.0025958780348792486 0.0039030210680944775 0.0038124558549743359 0.0063335309606218707 -0.0075964476323748219 0.0057294602558721208 0.0039833936459935122 0.010926552420253543 0.015998590811536706 -0.001528374693360655 0.0076674910206982532 0.010190946213061056 0.016194224632484471\nleaf_weight=4310 478 27 190 338 78 85 873 425 524 75 2816 131 125 50\nleaf_count=4310 478 27 190 338 78 85 873 425 524 75 2816 131 125 50\ninternal_value=0 -0.00232198 -0.00252725 0.00597368 -0.00269607 -0.0027953 0.00422679 0.00744847 0.00841994 0.012559 -0.00171045 0.00660382 0.00541921 0.0101265\ninternal_weight=0 7581 7479 2944 7289 7211 1351 1593 1255 102 2901 731 550 181\ninternal_count=10525 7581 7479 2944 7289 7211 1351 1593 1255 102 2901 731 550 181\nis_linear=0\nshrinkage=0.05\n\n\nTree=19\nnum_leaves=15\nnum_cat=0\nsplit_feature=7 3 2 0 12 7 6 2 0 1 12 0 1 1\nsplit_gain=57.6406 9.07157 5.84086 4.25743 3.72907 2.52438 2.21957 2.06083 1.87564 1.42905 1.32345 1.26516 1.10633 0.81022\nthreshold=1.0000000180025095e-35 1.0000000180025095e-35 2.5000000000000004 3.8050000000000002 1.0000000180025095e-35 0.70000000000000007 inf 3.5000000000000004 2.6050000000000004 168.50000000000003 1.0000000180025095e-35 3.5150000000000001 162.50000000000003 154.50000000000003\ndecision_type=10 10 8 10 2 10 8 8 8 10 2 10 10 8\nleft_child=1 3 6 4 7 -4 -2 -1 -9 13 -3 -10 -5 -6\nright_child=2 10 5 12 9 -7 -8 8 11 -11 -12 -13 -14 -15\nleaf_value=0.0051528659522165629 0.0045329469078002928 0.0025849743516572284 0.0014044124278457196 -0.00018203450869165789 -0.0068792551360685314 0.0054385466066666907 0.0098050541085961118 -0.014260658375057564 -0.0046171611341367302 0.0054563927724716639 0.015820296090447047 -0.0025068379506918443 0.0045018819472133079 -0.0016149697277473962\nleaf_weight=59 263 27 587 874 75 1169 925 45 2615 69 75 998 146 2598\nleaf_count=59 263 27 587 874 75 1169 925 45 2615 69 75 998 146 2598\ninternal_value=0 -0.00230686 0.00593551 -0.00251007 -0.00298418 0.00409442 0.00864691 -0.00401685 -0.00416748 -0.00158155 0.0124245 -0.00403648 0.000487264 -0.00176706\ninternal_weight=0 7581 2944 7479 6459 1756 1188 3717 3658 2742 102 3613 1020 2673\ninternal_count=10525 7581 2944 7479 6459 1756 1188 3717 3658 2742 102 3613 1020 2673\nis_linear=0\nshrinkage=0.05\n\n\nTree=20\nnum_leaves=15\nnum_cat=0\nsplit_feature=2 4 0 3 6 1 0 12 4 0 3 3 12 3\nsplit_gain=46.9405 8.56514 6.73772 3.09231 2.51039 1.6934 1.61456 1.44272 1.32843 1.31936 1.28537 0.913888 0.882186 1.26724\nthreshold=3.5000000000000004 1.0000000180025095e-35 3.5205000000000006 1.0000000180025095e-35 inf 160.50000000000003 3.9545000000000008 1.0000000180025095e-35 1.0000000180025095e-35 3.0050000000000003 4.5000000000000009 8.0000000000000018 1.0000000180025095e-35 8.0000000000000018\ndecision_type=8 2 8 10 8 10 10 2 2 8 8 10 2 8\nleft_child=4 2 5 6 -1 9 -4 -5 12 -2 -9 -3 -6 -14\nright_child=1 11 3 7 8 -7 -8 10 -10 -11 -12 -13 13 -15\nleaf_value=0.0041313100244720537 -0.0080651694640983072 0.0058849675286126828 -0.001527326617362459 0.00065102598755012149 0.0065720034031360695 0.0032408554192101258 0.0019809054570751067 0.0020522362260077254 0.011098420587217502 -0.0043203686147062614 0.011097355495439241 -0.0037188737210721249 0.0078012606012173623 0.017036862852733866\nleaf_weight=332 303 424 6271 230 531 62 344 77 501 1155 84 25 130 56\nleaf_count=332 303 424 6271 230 531 62 344 77 501 1155 84 25 130 56\ninternal_value=0 -0.00138868 -0.00174378 -0.0010878 0.00803127 -0.00476133 -0.00134386 0.00322382 0.00908596 -0.00510703 0.00684166 0.00533205 0.00765929 0.0106848\ninternal_weight=0 8975 8526 7006 1550 1520 6615 391 1218 1458 161 449 717 186\ninternal_count=10525 8975 8526 7006 1550 1520 6615 391 1218 1458 161 449 717 186\nis_linear=0\nshrinkage=0.05\n\n\nTree=21\nnum_leaves=15\nnum_cat=0\nsplit_feature=7 3 2 1 2 7 5 6 5 1 4 5 3 4\nsplit_gain=56.2995 8.7722 5.64621 3.11159 2.52968 2.47234 2.17932 2.09912 1.26925 1.18395 1.08946 0.769723 0.652535 0.608152\nthreshold=1.0000000180025095e-35 1.0000000180025095e-35 2.5000000000000004 167.50000000000003 3.5000000000000004 0.70000000000000007 inf inf inf 153.50000000000003 1.0000000180025095e-35 1.0000000180025095e-35 4.5000000000000009 1.0000000180025095e-35\ndecision_type=10 10 8 10 8 8 8 8 8 8 2 8 8 2\nleft_child=1 3 7 4 -1 13 9 11 -3 -6 12 -2 -9 -4\nright_child=2 8 5 -5 6 -7 -8 10 -10 -11 -12 -13 -14 -15\nleaf_value=0.006939149490221304 -0.0029621802903803409 0.015532733061969246 0.0005961768476370399 0.0038126371964256989 -0.0074672018365472912 0.0053863934723652517 -0.0034482680961247418 0.01139382361151741 0.0025640920393620054 -0.0014921858836014097 0.011616653079577858 0.00548771091074432 0.0069993759201610207 0.0046976303357155226\nleaf_weight=67 29 75 475 190 85 1169 4319 119 27 2818 413 234 393 112\nleaf_count=67 29 75 475 190 85 1169 4319 119 27 2818 413 234 393 112\ninternal_value=0 -0.00227945 0.00586647 -0.00247929 -0.00264449 0.00405617 -0.00273504 0.00853243 0.0122066 -0.00167137 0.00965908 0.00452934 0.00805071 0.0013939\ninternal_weight=0 7581 2944 7479 7289 1756 7222 1188 102 2903 925 263 512 587\ninternal_count=10525 7581 2944 7479 7289 1756 7222 1188 102 2903 925 263 512 587\nis_linear=0\nshrinkage=0.05\n\n\nTree=22\nnum_leaves=15\nnum_cat=0\nsplit_feature=2 4 0 11 6 1 0 5 0 4 1 0 1 5\nsplit_gain=45.6075 8.33936 6.56437 2.98111 2.38319 1.64438 1.58177 1.3973 1.29029 1.27852 1.09613 1.19945 1.06886 1.05731\nthreshold=3.5000000000000004 1.0000000180025095e-35 3.5205000000000006 1.0000000180025095e-35 inf 160.50000000000003 3.8050000000000002 1.0000000180025095e-35 3.0050000000000003 1.0000000180025095e-35 168.50000000000003 3.7705000000000006 162.50000000000003 1.0000000180025095e-35\ndecision_type=8 2 8 2 8 10 10 10 8 2 10 10 10 10\nleft_child=4 2 5 6 -1 8 10 -5 -2 13 11 -4 -8 -6\nright_child=1 -3 3 7 9 -7 12 -9 -10 -11 -12 -13 -14 -15\nleaf_value=0.0041154709472400533 -0.0079634274182819303 0.005263125697387367 -0.0015904015958341606 0.00078499327701289894 0.0064210801736745045 0.0031875116860558572 -0.00017384217344252882 0.0069583805168320322 -0.004259937336467289 0.010919628615056227 0.0043352627768022825 -0.0055479278377794676 0.0044299590334631106 0.011017389370110302\nleaf_weight=332 303 449 5322 242 545 62 874 149 1155 501 74 199 146 172\nleaf_count=332 303 449 5322 242 545 62 874 149 1155 501 74 199 146 172\ninternal_value=0 -0.00136839 -0.00171879 -0.00107129 0.00791684 -0.00469728 -0.00132271 0.00316202 -0.00503795 0.00894469 -0.00165299 -0.00173493 0.00048393 0.00754445\ninternal_weight=0 8975 8526 7006 1550 1520 6615 391 1458 1218 5595 5521 1020 717\ninternal_count=10525 8975 8526 7006 1550 1520 6615 391 1458 1218 5595 5521 1020 717\nis_linear=0\nshrinkage=0.05\n\n\nTree=23\nnum_leaves=15\nnum_cat=0\nsplit_feature=10 0 4 11 5 1 4 0 6 0 5 6 1 4\nsplit_gain=41.9985 7.73317 6.01601 2.54217 2.3353 1.671 1.56259 1.53533 1.49553 1.28185 1.1658 0.865578 0.801056 0.782564\nthreshold=1.0000000180025095e-35 3.5205000000000006 1.0000000180025095e-35 1.0000000180025095e-35 1.0000000180025095e-35 160.50000000000003 1.0000000180025095e-35 3.9545000000000008 inf 3.0050000000000003 1.0000000180025095e-35 inf 167.50000000000003 2.0000000000000004\ndecision_type=2 8 2 2 10 10 2 10 8 8 10 8 10 2\nleft_child=1 5 3 7 6 9 -2 12 13 -1 -5 -6 -3 -8\nright_child=4 2 -4 10 11 -7 8 -9 -10 -11 -12 -13 -14 -15\nleaf_value=-0.0078881081375821709 0.0045419090462182508 -0.0015555159667715536 0.0051355568514231849 0.00081810538296025667 0.0061639738534135635 0.0032576499073993363 0.0074055829508684473 0.0019532447069810412 0.0099143471947291829 -0.0041978740255093653 0.0067479822659349143 0.011336896044604848 0.002271533046181932 -0.00055877778234613665\nleaf_weight=303 740 6048 414 227 115 63 59 344 352 1157 132 372 138 61\nleaf_count=303 740 6048 414 227 115 63 59 344 352 1157 132 372 138 61\ninternal_value=0 -0.0013861 -0.000709123 -0.00106178 0.00719629 -0.0046264 0.00600166 -0.00128766 0.00826523 -0.00497202 0.00302503 0.0101407 -0.00146898 0.00334455\ninternal_weight=0 8826 7303 6889 1699 1523 1212 6530 472 1460 359 487 6186 120\ninternal_count=10525 8826 7303 6889 1699 1523 1212 6530 472 1460 359 487 6186 120\nis_linear=0\nshrinkage=0.05\n\n\nTree=24\nnum_leaves=15\nnum_cat=0\nsplit_feature=7 11 0 12 10 7 6 4 0 10 1 12 0 1\nsplit_gain=54.4196 8.40746 3.98865 3.5046 2.54704 2.10662 1.8971 2.01933 1.83022 1.72214 1.33466 1.20617 1.17822 1.04506\nthreshold=1.0000000180025095e-35 1.0000000180025095e-35 3.8050000000000002 1.0000000180025095e-35 1.0000000180025095e-35 0.70000000000000007 inf 1.0000000180025095e-35 2.6050000000000004 1.0000000180025095e-35 168.50000000000003 1.0000000180025095e-35 3.5150000000000001 162.50000000000003\ndecision_type=10 2 10 2 2 10 8 2 8 2 10 2 10 10\nleft_child=1 2 3 8 5 -2 -6 -8 -1 12 -5 -3 -10 -4\nright_child=4 11 13 10 6 -7 7 -9 9 -11 -12 -13 -14 -15\nleaf_value=-0.013863692954171206 0.0014703412929310182 0.0025334540275308674 -0.00018539619510324768 -0.0017144571725851853 0.003759107145579501 0.0056189167678819193 0.006296316375920822 0.010417654989294116 -0.0044807138200034947 0.0040340406605678322 0.0052657676740855835 0.015184163917835742 -0.0024426146030255653 0.0043669317173623701\nleaf_weight=45 478 27 874 2673 338 873 731 524 2606 68 69 75 998 146\nleaf_count=45 478 27 874 2673 338 873 731 524 2606 68 69 75 998 146\ninternal_value=0 -0.00224044 -0.00243608 -0.00289499 0.00576833 0.00415697 0.0071283 0.008028 -0.00389612 -0.00376887 -0.00153513 0.0119411 -0.00391856 0.000464953\ninternal_weight=0 7581 7479 6459 2944 1351 1593 1255 3717 3672 2742 102 3604 1020\ninternal_count=10525 7581 7479 6459 2944 1351 1593 1255 3717 3672 2742 102 3604 1020\nis_linear=0\nshrinkage=0.05\n\n\nTree=25\nnum_leaves=15\nnum_cat=0\nsplit_feature=7 3 0 12 10 7 0 5 4 3 10 1 0 1\nsplit_gain=53.7232 8.25864 3.83056 3.43802 2.49146 2.07269 1.80179 1.51715 1.41005 1.47843 1.31251 1.29433 1.07388 1.02445\nthreshold=1.0000000180025095e-35 4.5000000000000009 3.8050000000000002 1.0000000180025095e-35 1.0000000180025095e-35 0.70000000000000007 2.6050000000000004 1.0000000180025095e-35 1.0000000180025095e-35 4.5000000000000009 1.0000000180025095e-35 168.50000000000003 3.5150000000000001 162.50000000000003\ndecision_type=10 10 10 2 2 8 8 10 2 8 2 10 10 10\nleft_child=1 2 3 6 5 -2 -1 8 9 -6 12 -5 -8 -4\nright_child=4 -3 13 11 7 -7 10 -9 -10 -11 -12 -13 -14 -15\nleaf_value=-0.013722339515386209 0.0014725356498578967 0.013952698241611595 -0.00019460108159652064 -0.0016746381136841318 0.010817293723926326 0.0055878041194945306 -0.0043738087772146961 0.0095447204772889458 0.008192785292141418 0.0036609592218810176 0.0030013155757225361 0.0051987792896327194 -0.0024279634245685001 0.00431266686659856\nleaf_weight=45 478 77 874 2685 83 873 2617 455 470 585 70 69 998 146\nleaf_count=45 478 77 874 2685 83 873 2617 455 470 585 70 69 998 146\ninternal_value=0 -0.00222586 -0.00239437 -0.00284248 0.0057315 0.00413764 -0.00383257 0.00707664 0.00607794 0.00457246 -0.00370675 -0.00149879 -0.00383882 0.000449252\ninternal_weight=0 7581 7504 6484 2944 1351 3730 1593 1138 668 3685 2754 3615 1020\ninternal_count=10525 7581 7504 6484 2944 1351 3730 1593 1138 668 3685 2754 3615 1020\nis_linear=0\nshrinkage=0.05\n\n\nTree=26\nnum_leaves=15\nnum_cat=0\nsplit_feature=7 3 2 0 12 7 6 2 0 1 12 0 1 5\nsplit_gain=53.04 8.10281 5.27922 3.81562 3.35261 2.33919 1.88904 1.84517 1.69898 1.27815 1.16011 1.11324 1.00504 0.81587\nthreshold=1.0000000180025095e-35 1.0000000180025095e-35 2.5000000000000004 3.8050000000000002 1.0000000180025095e-35 0.70000000000000007 inf 3.5000000000000004 2.6050000000000004 168.50000000000003 1.0000000180025095e-35 3.5150000000000001 163.50000000000003 1.0000000180025095e-35\ndecision_type=10 10 8 10 2 10 8 8 8 10 2 10 10 8\nleft_child=1 3 6 4 7 -4 -2 -1 -9 -6 -3 -10 13 -5\nright_child=2 10 5 12 9 -7 -8 8 11 -11 -12 -13 -14 -15\nleaf_value=0.004843008793086797 0.004471856368476316 0.0024802045522826573 0.0013545391097965079 -0.0047658512421849368 -0.0016977531173370812 0.0052383839108515046 0.0093425665335988683 -0.013582483397885673 -0.0043943212062393256 0.00513262390070839 0.014891377330638576 -0.0024135411452970083 0.0045240519547491498 0.00032900954139626566\nleaf_weight=59 263 27 587 86 2673 1169 925 45 2615 69 75 998 130 804\nleaf_count=59 263 27 587 86 2673 1169 925 45 2615 69 75 998 130 804\ninternal_value=0 -0.00221147 0.00569513 -0.00240355 -0.00285238 0.00394444 0.00827316 -0.0038316 -0.00397416 -0.00152224 0.0117106 -0.00384938 0.000433765 -0.000162488\ninternal_weight=0 7581 2944 7479 6459 1756 1188 3717 3658 2742 102 3613 1020 890\ninternal_count=10525 7581 2944 7479 6459 1756 1188 3717 3658 2742 102 3613 1020 890\nis_linear=0\nshrinkage=0.05\n\n\nTree=27\nnum_leaves=15\nnum_cat=0\nsplit_feature=7 11 2 0 5 7 6 2 0 5 0 4 0 0\nsplit_gain=52.3587 7.94576 5.19466 3.73205 3.2804 2.29999 1.8361 1.81471 1.66158 1.13169 1.08584 0.975043 0.796924 0.888535\nthreshold=1.0000000180025095e-35 1.0000000180025095e-35 2.5000000000000004 3.8050000000000002 inf 0.70000000000000007 inf 3.5000000000000004 2.6050000000000004 inf 3.5150000000000001 1.0000000180025095e-35 3.8450000000000002 3.9545000000000008\ndecision_type=10 2 8 10 8 8 8 8 8 8 10 2 10 10\nleft_child=1 3 6 4 -1 -4 -2 -6 -9 -3 -10 -8 -5 -14\nright_child=2 9 5 12 7 -7 11 8 10 -11 -12 -13 13 -15\nleaf_value=-0.0015153265870196191 0.0044671523436542971 0.014731307793045165 0.0013537164716872414 0.0041094613742739105 0.0048026435248487787 0.0052050537035067271 0.0077459862743646957 -0.013443804275104641 -0.0043559449393856062 0.0024687937425910446 -0.0023994310953847141 0.01112509953583502 -0.001357406618143879 0.0018787109708662546\nleaf_weight=2742 263 75 587 127 59 1169 512 45 2615 27 998 413 549 344\nleaf_count=2742 263 75 587 127 59 1169 512 45 2615 27 998 413 549 344\ninternal_value=0 -0.002197 0.00565864 -0.00238722 -0.00283111 0.00392197 0.00821599 -0.00379974 -0.00394113 0.0115894 -0.0038177 0.0092705 0.000418798 -0.000104495\ninternal_weight=0 7581 2944 7479 6459 1756 1188 3717 3658 102 3613 925 1020 893\ninternal_count=10525 7581 2944 7479 6459 1756 1188 3717 3658 102 3613 925 1020 893\nis_linear=0\nshrinkage=0.05\n\n\nTree=28\nnum_leaves=15\nnum_cat=0\nsplit_feature=7 11 0 12 10 7 0 10 5 4 3 1 5 1\nsplit_gain=51.6855 7.79207 3.65116 3.20884 2.33001 1.97782 1.69271 1.54081 1.4749 1.36843 1.45179 1.25191 1.10408 0.9903\nthreshold=1.0000000180025095e-35 1.0000000180025095e-35 3.8050000000000002 1.0000000180025095e-35 1.0000000180025095e-35 0.70000000000000007 3.0150000000000001 1.0000000180025095e-35 1.0000000180025095e-35 1.0000000180025095e-35 4.5000000000000009 168.50000000000003 inf 162.50000000000003\ndecision_type=10 2 10 2 2 8 8 2 10 2 8 10 8 10\nleft_child=1 2 3 6 5 -2 -1 -8 9 10 -6 -5 -3 -4\nright_child=4 12 13 11 8 -7 7 -9 -10 -11 -12 -13 -14 -15\nleaf_value=-0.00744242923558475 0.0014765331449416942 0.014573394761878383 -0.00022855932919733978 -0.0016823672433921696 0.010643260233790827 0.005497173675661317 -0.0036043813755175292 0.0039215060900028098 0.0093568487013147832 0.0080221473748708638 0.0035526631470210466 0.0050773355854094012 0.0024570956379225822 0.00420317487923567\nleaf_weight=291 478 75 874 2673 83 873 3358 68 455 470 585 69 27 146\nleaf_count=291 478 75 874 2673 83 873 3358 68 455 470 585 69 27 146\ninternal_value=0 -0.00218263 -0.002371 -0.00281006 0.00562236 0.00408047 -0.00376808 -0.00345245 0.00692349 0.00593883 0.00445575 -0.00150865 0.0114697 0.000404385\ninternal_weight=0 7581 7479 6459 2944 1351 3717 3426 1593 1138 668 2742 102 1020\ninternal_count=10525 7581 7479 6459 2944 1351 3717 3426 1593 1138 668 2742 102 1020\nis_linear=0\nshrinkage=0.05\n\n\nTree=29\nnum_leaves=15\nnum_cat=0\nsplit_feature=2 0 3 1 1 0 5 12 0 0 5 1 1 1\nsplit_gain=41.4732 7.05248 4.21984 1.5659 1.18825 1.18559 1.13343 0.780774 0.743718 0.720338 0.790931 1.0358 0.690644 0.669819\nthreshold=3.5000000000000004 3.5205000000000006 inf 160.50000000000003 167.50000000000003 3.0050000000000003 1.0000000180025095e-35 1.0000000180025095e-35 3.9545000000000008 3.9650000000000003 1.0000000180025095e-35 163.50000000000003 154.50000000000003 169.50000000000003\ndecision_type=8 8 8 10 10 8 10 2 10 10 10 8 8 10\nleft_child=6 3 7 5 8 -2 -1 -3 12 -10 11 -11 -4 -8\nright_child=1 2 4 -5 -6 -7 13 -9 9 10 -12 -13 -14 -15\nleaf_value=0.0066455770567028496 -0.0075415499352821233 0.0018957997472135776 -0.0057889750242699854 0.0032286502475158589 0.0030547928005675864 -0.0039923436597163351 0.010142537499636353 0.005662439679408101 0.0080241823059505404 -0.011538154507496705 0.0055836491108151752 0.00011751294074251432 -0.0011795583184405199 0.0015782760020982675\nleaf_weight=1091 303 357 82 63 173 1158 433 231 34 20 57 198 6299 26\nleaf_count=1091 303 357 82 63 173 1158 433 231 34 20 57 198 6299 26\ninternal_value=0 -0.00130349 -0.000668546 -0.00440205 -0.00101754 -0.0047365 0.0075509 0.00339114 -0.00112404 0.00126059 0.000380201 -0.000976786 -0.00124047 0.00967277\ninternal_weight=0 8975 7451 1524 6863 1461 1550 588 6690 309 275 218 6381 459\ninternal_count=10525 8975 7451 1524 6863 1461 1550 588 6690 309 275 218 6381 459\nis_linear=0\nshrinkage=0.05\n\n\nTree=30\nnum_leaves=15\nnum_cat=0\nsplit_feature=7 3 2 0 12 7 6 0 2 1 1 0 4 1\nsplit_gain=50.5473 7.56648 4.97556 3.46493 3.12273 2.22435 1.76678 1.65308 1.271 1.19764 0.964042 0.959091 0.937492 0.776914\nthreshold=1.0000000180025095e-35 4.5000000000000009 2.5000000000000004 3.8050000000000002 1.0000000180025095e-35 0.70000000000000007 inf 2.6050000000000004 3.5000000000000004 168.50000000000003 162.50000000000003 3.5150000000000001 1.0000000180025095e-35 154.50000000000003\ndecision_type=10 10 8 10 2 8 8 8 8 10 10 10 2 8\nleft_child=1 3 6 4 7 -4 -2 -1 -9 13 -5 -10 -8 -6\nright_child=2 -3 5 10 9 -7 12 8 11 -11 -12 -13 -14 -15\nleaf_value=-0.013164122104213798 0.0043853372387794827 0.013327242476112749 0.0013348278779181173 -0.00023952301066551101 -0.006639115794101271 0.0051225463481979336 0.0076024206480562019 0.0035037789745162129 -0.0041942861876236252 0.0049769632180739175 0.0041331315918817224 -0.0023550968094911626 0.010917132376103537 -0.0014857251523097417\nleaf_weight=45 263 77 587 874 75 1169 512 61 2626 69 146 998 413 2610\nleaf_count=45 263 77 587 874 75 1169 512 61 2626 69 146 998 413 2610\ninternal_value=0 -0.00215805 0.00556052 -0.00231937 -0.00274555 0.0038607 0.00806347 -0.00368921 -0.00356861 -0.00146476 0.000384905 -0.00368997 0.00909799 -0.00163395\ninternal_weight=0 7581 2944 7504 6484 1756 1188 3730 3685 2754 1020 3624 925 2685\ninternal_count=10525 7581 2944 7504 6484 1756 1188 3730 3685 2754 1020 3624 925 2685\nis_linear=0\nshrinkage=0.05\n\n\nTree=31\nnum_leaves=15\nnum_cat=0\nsplit_feature=7 11 1 10 10 7 5 6 4 5 1 5 8 1\nsplit_gain=49.9004 7.43592 2.62949 2.22812 2.15228 1.91729 1.80173 1.69571 1.86668 1.15653 1.13663 1.05302 0.735282 0.539687\nthreshold=1.0000000180025095e-35 1.0000000180025095e-35 167.50000000000003 1.0000000180025095e-35 1.0000000180025095e-35 0.70000000000000007 inf inf 1.0000000180025095e-35 1.0000000180025095e-35 153.50000000000003 inf 1.0000000180025095e-35 165.50000000000003\ndecision_type=10 2 10 2 2 10 8 8 2 10 8 8 2 8\nleft_child=1 2 3 6 5 -2 10 -6 9 -9 -1 -3 -10 -12\nright_child=4 11 -4 -5 7 -7 -8 8 12 -11 13 -13 -14 -15\nleaf_value=-0.007282530855334448 0.0014782556754342538 0.014223787263203946 0.0034550240253807063 0.0058571766315935175 0.0035887877244533172 0.0054373213037757712 -0.0032211989802598874 0.0048461203150281544 0.01037129802844735 0.0096483314475800004 0.00048489359705950293 0.0023862588528786449 0.0017523626067249692 -0.0016773006248723397\nleaf_weight=85 478 75 190 78 338 873 4310 564 496 167 322 27 28 2494\nleaf_count=85 478 75 190 78 338 873 4310 564 496 167 322 27 28 2494\ninternal_value=0 -0.00214398 -0.00232801 -0.00247989 0.00552504 0.00404238 -0.00257157 0.00677599 0.00762686 0.00596172 -0.00160391 0.0111925 0.00992448 -0.0014282\ninternal_weight=0 7581 7479 7289 2944 1351 7211 1593 1255 731 2901 102 524 2816\ninternal_count=10525 7581 7479 7289 2944 1351 7211 1593 1255 731 2901 102 524 2816\nis_linear=0\nshrinkage=0.05\n\n\nTree=32\nnum_leaves=15\nnum_cat=0\nsplit_feature=7 3 2 1 2 7 12 6 1 12 4 6 3 4\nsplit_gain=49.2681 7.29377 4.85073 2.57501 2.20954 2.15587 1.78879 1.67539 1.11813 1.02735 0.895101 0.597023 0.580772 0.565764\nthreshold=1.0000000180025095e-35 1.0000000180025095e-35 2.5000000000000004 167.50000000000003 3.5000000000000004 0.70000000000000007 1.0000000180025095e-35 inf 153.50000000000003 1.0000000180025095e-35 1.0000000180025095e-35 inf 4.5000000000000009 1.0000000180025095e-35\ndecision_type=10 10 8 10 8 10 2 8 8 2 2 8 8 2\nleft_child=1 3 7 4 -1 13 -6 -2 -8 -3 12 -7 -9 -4\nright_child=2 9 5 -5 6 11 8 10 -10 -11 -12 -13 -14 -15\nleaf_value=0.0064926605265531309 0.0043775777917582376 0.0023759581742288103 0.00055504688613879907 0.0034102665949915715 -0.0031937097730051081 0.0018121414719391598 -0.0072155622503461614 0.010662098438704894 -0.0014091066956516769 0.01407262460299977 0.010748230153005175 0.0054597134626970566 0.0065136229735332455 0.0045112938669803742\nleaf_weight=67 263 27 475 190 4319 132 85 119 2818 75 413 1037 393 112\nleaf_count=67 263 27 475 190 4319 132 85 119 2818 75 413 1037 393 112\ninternal_value=0 -0.00213014 0.00549013 -0.0023124 -0.00246271 0.00381171 -0.00254737 0.00796154 -0.00158327 0.0110781 0.00896932 0.00505401 0.00750647 0.00132479\ninternal_weight=0 7581 2944 7479 7289 1756 7222 1188 2903 102 925 1169 512 587\ninternal_count=10525 7581 2944 7479 7289 1756 7222 1188 2903 102 925 1169 512 587\nis_linear=0\nshrinkage=0.05\n\n\nTree=33\nnum_leaves=15\nnum_cat=0\nsplit_feature=2 0 11 6 1 0 0 5 12 0 1 0 1 1\nsplit_gain=39.2597 6.70449 3.92743 1.93784 1.49166 1.14929 1.14707 0.876647 0.722651 0.702437 0.654737 0.628015 0.890307 0.782672\nthreshold=3.5000000000000004 3.5205000000000006 1.0000000180025095e-35 inf 160.50000000000003 3.9545000000000008 3.0050000000000003 1.0000000180025095e-35 1.0000000180025095e-35 3.5450000000000004 161.50000000000003 3.9650000000000003 163.50000000000003 157.50000000000003\ndecision_type=8 8 2 8 10 10 10 10 2 8 8 10 10 10\nleft_child=3 4 5 -1 6 9 -2 -5 -4 -3 -11 -7 13 -13\nright_child=1 2 8 7 -6 11 -8 -9 -10 10 -12 12 -14 -15\nleaf_value=0.0039150316093678958 -0.0073740376802326913 0.0050727592604256529 0.0018287093883641227 0.0073904951362258331 0.0031579781862331752 0.0076522540989852027 -0.003883012831345554 0.010462107373071322 0.0054537398781833255 -0.0038436289038855671 -0.0010813916001143136 0.00091227584116218736 0.007511280113597793 -0.0074315374499098032\nleaf_weight=332 303 44 357 872 63 40 1158 346 231 223 6252 229 44 31\nleaf_count=332 303 44 357 872 63 40 1158 346 231 223 6252 229 44 31\ninternal_value=0 -0.00126737 -0.000648273 0.00734749 -0.00428853 -0.000984976 -0.00461499 0.00827502 0.00326816 -0.00113415 -0.00117787 0.00182251 0.00101647 -8.8068e-05\ninternal_weight=0 8975 7451 1550 1524 6863 1461 1218 588 6519 6475 344 304 260\ninternal_count=10525 8975 7451 1550 1524 6863 1461 1218 588 6519 6475 344 304 260\nis_linear=0\nshrinkage=0.05\n\n\nTree=34\nnum_leaves=15\nnum_cat=0\nsplit_feature=7 3 2 0 12 7 2 6 0 1 5 0 1 5\nsplit_gain=48.1798 7.0807 4.68627 3.40884 2.93958 2.11898 1.60898 1.5854 1.54072 1.14349 0.99317 0.975038 0.90437 0.803632\nthreshold=1.0000000180025095e-35 1.0000000180025095e-35 2.5000000000000004 3.8050000000000002 1.0000000180025095e-35 0.70000000000000007 3.5000000000000004 inf 2.6050000000000004 168.50000000000003 inf 3.5150000000000001 162.50000000000003 1.0000000180025095e-35\ndecision_type=10 10 8 10 2 10 8 8 8 10 8 10 10 8\nleft_child=1 3 7 4 6 -4 -1 -2 -8 -6 -3 -10 13 -5\nright_child=2 10 5 12 9 -7 8 -9 11 -11 -12 -13 -14 -15\nleaf_value=0.0044709075112668237 0.0043701365664991143 0.013852338907991289 0.0013140549201778027 -0.0050556297563482157 -0.0016301878196988539 0.0050113512792634264 -0.01291148223602432 0.0088395960743162996 -0.0041513412781779505 0.0048292730750999179 0.0023470107477207387 -0.0022964793007923738 0.0040261597473007608 0.00025906287938463012\nleaf_weight=59 263 75 587 77 2673 1169 45 925 2615 69 27 998 146 797\nleaf_count=59 263 75 587 77 2673 1169 45 925 2615 69 27 998 146 797\ninternal_value=0 -0.00210605 0.00542958 -0.00228564 -0.00270988 0.00377971 -0.00362689 0.00785886 -0.00376005 -0.00146412 0.0109077 -0.00364114 0.000395924 -0.000208694\ninternal_weight=0 7581 2944 7479 6459 1756 3717 1188 3658 2742 102 3613 1020 874\ninternal_count=10525 7581 2944 7479 6459 1756 3717 1188 3658 2742 102 3613 1020 874\nis_linear=0\nshrinkage=0.05\n\n\nTree=35\nnum_leaves=15\nnum_cat=0\nsplit_feature=2 4 0 11 1 0 5 0 5 0 1 4 5 2\nsplit_gain=38.1624 7.3336 5.31527 2.31053 1.39865 1.31503 1.0998 1.08395 1.04969 0.747327 0.652153 0.640996 0.796838 0.829103\nthreshold=3.5000000000000004 1.0000000180025095e-35 3.5205000000000006 1.0000000180025095e-35 160.50000000000003 3.9545000000000008 1.0000000180025095e-35 3.0050000000000003 1.0000000180025095e-35 3.5450000000000004 169.50000000000003 1.0000000180025095e-35 1.0000000180025095e-35 2.5000000000000004\ndecision_type=8 2 8 2 10 10 10 8 10 8 10 2 8 10\nleft_child=8 2 4 5 7 9 -5 -2 11 -4 -10 12 -1 -14\nright_child=1 -3 3 6 -6 -7 -8 -9 10 -11 -12 -13 13 -15\nleaf_value=-0.0033751041736714057 -0.0072549496338444727 0.0049695356517693353 0.0050172346113675007 0.00062048053894318193 0.0030100833388525413 0.001783551449741517 0.0060993633278572448 -0.0038586545438658868 0.0097503099312051863 -0.0014288139897563746 0.0013140385796034681 0.0078646246460704131 0.0066020800188310094 0.001991976666701676\nleaf_weight=24 303 449 44 242 62 344 149 1155 433 6227 26 446 494 127\nleaf_count=24 303 449 44 242 62 344 149 1155 433 6227 26 446 494 127\ninternal_value=0 -0.00124911 -0.00157773 -0.000994987 -0.00425804 -0.00121638 0.00273133 -0.00457238 0.0072445 -0.001382 0.0092872 0.00637281 0.00532295 0.00567203\ninternal_weight=0 8975 8526 7006 1520 6615 391 1458 1550 6271 459 1091 645 621\ninternal_count=10525 8975 8526 7006 1520 6615 391 1458 1550 6271 459 1091 645 621\nis_linear=0\nshrinkage=0.05\n\n\nTree=36\nnum_leaves=15\nnum_cat=0\nsplit_feature=7 11 0 5 7 6 0 10 10 1 10 4 5 5\nsplit_gain=47.0774 6.87371 3.29541 2.85624 2.00995 1.9381 1.53429 1.41612 1.41307 1.11796 0.99883 1.47213 1.12114 0.958519\nthreshold=1.0000000180025095e-35 1.0000000180025095e-35 3.8050000000000002 inf 0.70000000000000007 inf 2.6050000000000004 1.0000000180025095e-35 1.0000000180025095e-35 168.50000000000003 1.0000000180025095e-35 1.0000000180025095e-35 1.0000000180025095e-35 inf\ndecision_type=10 2 10 8 8 8 8 2 2 10 2 2 10 8\nleft_child=1 2 3 9 7 -6 -5 -2 -8 -1 -7 12 -12 -3\nright_child=4 13 -4 6 5 10 8 -9 -10 -11 11 -13 -14 -15\nleaf_value=-0.0016116511070146937 0.0014795358020795275 0.013633871037710991 0.00037816010095053704 -0.012709284618390385 0.0027517606808695944 0.0055659958676430622 -0.0035983500292011798 0.0056044506384698538 0.0036019178103769418 0.0047751085597758612 0.0046297335736514315 0.010047406937751397 0.010506402763159395 0.0023253360329726492\nleaf_weight=2673 478 75 1020 45 346 811 3604 375 68 69 364 462 108 27\nleaf_count=2673 478 75 1020 45 346 811 3604 375 68 69 364 462 108 27\ninternal_value=0 -0.00208138 -0.00225833 -0.00267546 0.00536755 0.00620528 -0.00357938 0.00330324 -0.00346271 -0.00144743 0.00688522 0.00801818 0.00600434 0.0107406\ninternal_weight=0 7581 7479 6459 2944 2091 3717 853 3672 2742 1745 934 472 102\ninternal_count=10525 7581 7479 6459 2944 2091 3717 853 3672 2742 1745 934 472 102\nis_linear=0\nshrinkage=0.05\n\n\nTree=37\nnum_leaves=15\nnum_cat=0\nsplit_feature=2 4 0 11 6 0 0 5 4 3 3 0 5 3\nsplit_gain=37.1447 7.14943 5.14329 2.22781 1.78192 1.26725 1.1793 1.05669 1.02915 0.906766 0.840954 0.839272 0.798358 0.86248\nthreshold=3.5000000000000004 1.0000000180025095e-35 3.5205000000000006 1.0000000180025095e-35 inf 3.9545000000000008 3.0050000000000003 1.0000000180025095e-35 1.0000000180025095e-35 8.0000000000000018 4.5000000000000009 1.0000000180025095e-35 1.0000000180025095e-35 8.0000000000000018\ndecision_type=8 2 8 2 8 10 10 10 2 10 8 10 10 8\nleft_child=4 2 6 5 -1 -4 -2 -5 12 -3 -9 -10 -6 -14\nright_child=1 9 3 7 8 -7 -8 10 11 -11 -12 -13 13 -15\nleaf_value=0.0038540883063168637 -0.0069665488462266048 0.005459783826257978 -0.0013631195824898201 0.00060628784247199598 0.005798236959184553 0.0017442572902991998 -0.0034760055036961376 0.0018012576800085359 0.010300575890810092 -0.0041059338135589103 0.0094505369559267638 0.00098997243441210979 0.0072884527068280431 0.015272043230474337\nleaf_weight=332 309 424 6271 242 545 344 1211 69 474 25 80 27 120 52\nleaf_count=332 309 424 6271 242 545 344 1211 69 474 25 80 27 120 52\ninternal_value=0 -0.00123192 -0.00155639 -0.000983132 0.00714769 -0.00120053 -0.004193 0.00267579 0.00803745 0.00490812 0.00597721 0.00981174 0.00677877 0.00980532\ninternal_weight=0 8975 8526 7006 1550 6615 1520 391 1218 449 149 501 717 172\ninternal_count=10525 8975 8526 7006 1550 6615 1520 391 1218 449 149 501 717 172\nis_linear=0\nshrinkage=0.05\n\n\nTree=38\nnum_leaves=15\nnum_cat=0\nsplit_feature=7 3 2 1 2 7 5 5 1 6 4 3 6 4\nsplit_gain=45.9992 6.65991 4.40544 2.39144 2.05191 2.03622 1.56107 1.5456 1.08686 0.859381 0.906079 0.606538 0.585263 0.529119\nthreshold=1.0000000180025095e-35 4.5000000000000009 2.5000000000000004 167.50000000000003 3.5000000000000004 0.70000000000000007 inf 1.0000000180025095e-35 153.50000000000003 inf 1.0000000180025095e-35 4.5000000000000009 inf 1.0000000180025095e-35\ndecision_type=10 10 8 10 8 10 8 8 8 8 2 8 8 2\nleft_child=1 3 7 4 -1 13 8 -2 -6 -9 11 -11 -7 -4\nright_child=2 -3 5 -5 6 12 -8 9 -10 10 -12 -13 -14 -15\nleaf_value=0.0058054048324196784 -0.00058625165455084883 0.012470371823332941 0.00054412334526841887 0.0033064377331772331 -0.0070917039446075887 0.001705206162778425 -0.0030418375481777236 0.0052573316639828033 -0.0013672605904582144 0.010549689240655817 0.010593140029304553 0.0062756732517365299 0.0053151424797926164 0.0043708393505177377\nleaf_weight=75 53 77 475 190 85 132 4330 234 2824 116 398 387 1037 112\nleaf_count=75 53 77 475 190 85 132 4330 234 2824 116 398 387 1037 112\ninternal_value=0 -0.002057 0.00530614 -0.00220838 -0.00235275 0.00370621 -0.00243876 0.00766169 -0.00153862 0.00805142 0.0087649 0.00729023 0.0049136 0.00128896\ninternal_weight=0 7581 2944 7504 7314 1756 7239 1188 2909 1135 901 503 1169 587\ninternal_count=10525 7581 2944 7504 7314 1756 7239 1188 2909 1135 901 503 1169 587\nis_linear=0\nshrinkage=0.05\n\n\nTree=39\nnum_leaves=15\nnum_cat=0\nsplit_feature=7 3 1 10 7 6 5 10 1 5 10 4 3 3\nsplit_gain=45.4215 6.54462 2.36249 1.98777 1.92561 1.83223 1.60181 1.33515 1.06291 0.909823 0.90099 1.40196 1.81996 0.993934\nthreshold=1.0000000180025095e-35 1.0000000180025095e-35 167.50000000000003 1.0000000180025095e-35 0.70000000000000007 inf inf 1.0000000180025095e-35 153.50000000000003 inf 1.0000000180025095e-35 1.0000000180025095e-35 4.5000000000000009 4.5000000000000009\ndecision_type=10 10 10 2 10 8 8 2 8 8 2 2 8 10\nleft_child=1 2 3 6 7 -6 8 -2 -1 -3 13 12 -12 -7\nright_child=4 9 -4 -5 5 10 -8 -9 -10 -11 11 -13 -14 -15\nleaf_value=-0.0070260825240497475 0.0014805988318420281 0.013286435270891794 0.0032644866699081615 0.0055129693321704729 0.0027339590989611251 0.0061248962256114292 -0.0030597014999340956 0.0054868442582425942 -0.0013644777438230858 0.0022628070530098261 0.011857400686213099 0.0098126059059549711 0.0042144676325196239 0.0005389364863080489\nleaf_weight=85 478 75 190 78 346 719 4310 375 2816 27 100 462 372 92\nleaf_count=85 478 75 190 78 346 719 4310 375 2816 27 100 462 372 92\ninternal_value=0 -0.00204381 -0.00221649 -0.00236047 0.00527294 0.006093 -0.00244708 0.00325206 -0.00153445 0.0104673 0.00675422 0.0078319 0.00586595 0.00549883\ninternal_weight=0 7581 7479 7289 2944 2091 7211 853 2901 102 1745 934 472 811\ninternal_count=10525 7581 7479 7289 2944 2091 7211 853 2901 102 1745 934 472 811\nis_linear=0\nshrinkage=0.05\n\n\nTree=40\nnum_leaves=15\nnum_cat=0\nsplit_feature=7 11 2 0 5 7 5 0 2 0 5 6 0 0\nsplit_gain=44.8496 6.42321 4.29647 3.18293 2.69367 1.97324 1.50765 1.48353 1.41119 0.905368 0.888303 0.807412 0.789867 0.79589\nthreshold=1.0000000180025095e-35 1.0000000180025095e-35 2.5000000000000004 3.8050000000000002 inf 0.70000000000000007 1.0000000180025095e-35 2.6050000000000004 3.5000000000000004 3.5150000000000001 inf inf 3.8450000000000002 3.9545000000000008\ndecision_type=10 2 8 10 8 8 8 8 8 10 8 8 10 10\nleft_child=1 3 6 4 -1 -4 -2 -6 -9 -10 -3 -8 -5 -14\nright_child=2 10 5 12 7 -7 11 8 9 -11 -12 -13 13 -15\nleaf_value=-0.0014190243991363883 -0.00057883408889338221 0.013149683272287889 0.0012799687402626431 0.0040638475324241566 -0.0124672369310346 0.0048483886910621341 0.0052386535312840665 0.0042058232725561799 -0.003992828288427939 -0.002205018460667011 0.0022530549543135123 0.0086433767045988093 -0.0013176063786179651 0.0017448684154685531\nleaf_weight=2742 53 75 587 127 45 1169 234 59 2615 998 27 901 549 344\nleaf_count=2742 53 75 587 127 45 1169 234 59 2615 998 27 901 549 344\ninternal_value=0 -0.00203068 0.00523986 -0.00220175 -0.0026117 0.00365978 0.00756615 -0.00348956 -0.00337482 -0.00350112 0.0103637 0.00795106 0.000389293 -0.00013166\ninternal_weight=0 7581 2944 7479 6459 1756 1188 3717 3672 3613 102 1135 1020 893\ninternal_count=10525 7581 2944 7479 6459 1756 1188 3717 3672 3613 102 1135 1020 893\nis_linear=0\nshrinkage=0.05\n\n\nTree=41\nnum_leaves=15\nnum_cat=0\nsplit_feature=7 11 2 0 5 7 5 0 2 1 12 1 0 6\nsplit_gain=44.2766 6.30478 4.22932 3.11381 2.63479 1.94084 1.47468 1.45055 1.38867 1.06182 0.867722 0.866519 0.859788 0.78369\nthreshold=1.0000000180025095e-35 1.0000000180025095e-35 2.5000000000000004 3.8050000000000002 inf 0.70000000000000007 1.0000000180025095e-35 2.6050000000000004 2.5000000000000004 168.50000000000003 1.0000000180025095e-35 163.50000000000003 3.5150000000000001 inf\ndecision_type=10 2 8 10 8 8 8 8 8 10 2 10 10 8\nleft_child=1 3 6 4 9 -4 -2 -6 -9 -1 -3 -5 -10 -8\nright_child=2 10 5 11 7 -7 13 8 12 -11 -12 -13 -14 -15\nleaf_value=-0.0015728798588497475 -0.00054011984886563288 0.0022422526107214297 0.0012784207908823127 -0.000177498769966825 -0.01233864261048734 0.0048175860967689995 0.0052211150567262133 0.0052575112356446178 -0.0039338151657157434 0.0046510269159824764 0.013015886939944241 0.0041740630909286062 -0.0021922265066289148 0.0085776450622010517\nleaf_weight=2673 53 27 587 890 45 1169 234 45 2629 69 75 130 998 901\nleaf_count=2673 53 27 587 890 45 1169 234 45 2629 69 75 130 998 901\ninternal_value=0 -0.00201746 0.00520649 -0.00218695 -0.00259242 0.00363875 0.00751458 -0.00346065 -0.00334716 -0.0014128 0.010262 0.00037576 -0.00345672 0.00789524\ninternal_weight=0 7581 2944 7479 6459 1756 1188 3717 3672 2742 102 1020 3627 1135\ninternal_count=10525 7581 2944 7479 6459 1756 1188 3717 3672 2742 102 1020 3627 1135\nis_linear=0\nshrinkage=0.05\n\n\nTree=42\nnum_leaves=15\nnum_cat=0\nsplit_feature=2 4 0 6 1 0 0 4 0 5 0 1 0 1\nsplit_gain=34.687 6.76725 4.80436 1.5778 1.31637 1.02674 1.00286 0.972986 0.830448 0.747157 0.681825 0.623796 0.603722 0.832366\nthreshold=3.5000000000000004 1.0000000180025095e-35 3.5205000000000006 inf 160.50000000000003 3.9545000000000008 3.0050000000000003 1.0000000180025095e-35 inf 1.0000000180025095e-35 3.5450000000000004 161.50000000000003 3.9650000000000003 163.50000000000003\ndecision_type=8 2 8 8 10 10 10 2 8 10 8 8 10 10\nleft_child=3 2 4 -1 6 10 -2 9 -9 -5 -4 -12 -7 -14\nright_child=1 -3 5 7 -6 12 -8 8 -10 -11 11 -13 13 -15\nleaf_value=0.0038055709618164107 -0.0069390586392641881 0.0047842316089874541 0.0050266596232392113 0.0055730048964110993 0.0029963928662274635 0.0074180283807078699 -0.0036716818620139745 0.00071184832492204083 0.0099572184334763524 0.0094507556249254394 -0.0037342800345053374 -0.0010391005555116656 -0.00015378229277436051 0.0071945312434147663\nleaf_weight=332 303 449 44 545 62 40 1155 27 474 172 223 6395 260 44\nleaf_count=332 303 449 44 545 62 40 1155 27 474 172 223 6395 260 44\ninternal_value=0 -0.00118938 -0.00150508 0.00690826 -0.00405336 -0.000950993 -0.00435842 0.00774606 0.00947134 0.00652206 -0.00108905 -0.00113122 0.00170364 0.000913497\ninternal_weight=0 8975 8526 1550 1520 7006 1458 1218 501 717 6662 6618 344 304\ninternal_count=10525 8975 8526 1550 1520 7006 1458 1218 501 717 6662 6618 344 304\nis_linear=0\nshrinkage=0.05\n\n\nTree=43\nnum_leaves=15\nnum_cat=0\nsplit_feature=2 4 0 11 1 0 0 12 5 0 1 0 1 1\nsplit_gain=34.1977 6.66281 4.71347 2.02611 1.28915 1.17225 0.980865 0.965129 0.94734 0.717687 0.633649 0.589747 0.814937 0.758362\nthreshold=3.5000000000000004 1.0000000180025095e-35 3.5205000000000006 1.0000000180025095e-35 160.50000000000003 3.9545000000000008 3.0050000000000003 1.0000000180025095e-35 1.0000000180025095e-35 3.5450000000000004 169.50000000000003 3.9650000000000003 163.50000000000003 157.50000000000003\ndecision_type=8 2 8 2 10 10 8 2 10 8 10 10 10 10\nleft_child=8 2 4 5 6 9 -2 -5 -1 -4 -10 -7 13 -13\nright_child=1 -3 3 7 -6 11 -8 -9 10 -11 -12 12 -14 -15\nleaf_value=0.0060308405540518487 -0.0068724514085773463 0.0047465640756525831 0.0049622169797431254 0.00043616594192403928 0.0029579159001520243 0.0073274634343849761 -0.0036406820979785039 0.0055029881364752689 0.0092570340496373055 -0.0013548188863258563 0.00096156369898519906 0.00082698861807753887 0.0071133985128781912 -0.0073846962038211575\nleaf_weight=1091 303 449 44 230 62 40 1155 161 433 6227 26 229 44 31\nleaf_count=1091 303 449 44 230 62 40 1155 161 433 6227 26 229 44 31\ninternal_value=0 -0.00118075 -0.001494 -0.000945176 -0.00401808 -0.00115252 -0.00431998 0.00254398 0.00685957 -0.00130891 0.00880112 0.0016795 0.000898361 -0.000157482\ninternal_weight=0 8975 8526 7006 1520 6615 1458 391 1550 6271 459 344 304 260\ninternal_count=10525 8975 8526 7006 1520 6615 1458 391 1550 6271 459 344 304 260\nis_linear=0\nshrinkage=0.05\n\n\nTree=44\nnum_leaves=15\nnum_cat=0\nsplit_feature=7 3 2 1 7 2 5 12 1 6 4 2 3 1\nsplit_gain=42.8497 6.10265 4.02376 2.20541 1.89386 1.87437 1.43302 1.4122 1.0372 0.729007 0.857287 0.58312 0.572063 0.499469\nthreshold=1.0000000180025095e-35 4.5000000000000009 2.5000000000000004 167.50000000000003 0.70000000000000007 3.5000000000000004 1.0000000180025095e-35 1.0000000180025095e-35 153.50000000000003 inf 1.0000000180025095e-35 3.5000000000000004 4.5000000000000009 165.50000000000003\ndecision_type=10 10 8 10 10 8 8 2 8 8 2 10 8 8\nleft_child=1 3 6 5 -4 -1 -2 -7 -9 -8 12 -6 -11 -10\nright_child=2 -3 4 -5 11 7 9 8 13 10 -12 -13 -14 -15\nleaf_value=0.0055286558441925565 -0.00056463290897840039 0.011921803523975805 0.0012614331778681162 0.0031665367046085253 0.0050867880785855071 -0.0029235501252036903 0.0051658628488718897 -0.00691842269533797 0.00051451613886628253 0.010138924726085956 0.010186217672031282 0.00088282802044732265 0.0059888325143267933 -0.0015650284542409491\nleaf_weight=75 53 77 587 190 1076 4330 234 85 322 116 398 93 387 2502\nleaf_count=75 53 77 587 190 1076 4330 234 85 322 116 398 93 387 2502\ninternal_value=0 -0.00198405 0.00512254 -0.00212898 0.00359316 -0.00226764 0.00737402 -0.00234986 -0.00149349 0.0077493 0.00840823 0.00475766 0.00697405 -0.00132605\ninternal_weight=0 7581 2944 7504 1756 7314 1188 7239 2909 1135 901 1169 503 2824\ninternal_count=10525 7581 2944 7504 1756 7314 1188 7239 2909 1135 901 1169 503 2824\nis_linear=0\nshrinkage=0.05\n\n\nTree=45\nnum_leaves=15\nnum_cat=0\nsplit_feature=7 3 2 12 7 5 2 5 6 4 2 3 4 3\nsplit_gain=42.3158 5.99702 3.96229 1.93858 1.86318 1.40201 1.16488 0.823658 0.707914 0.840212 0.577461 0.56018 0.49626 1.05258\nthreshold=1.0000000180025095e-35 1.0000000180025095e-35 2.5000000000000004 1.0000000180025095e-35 0.70000000000000007 1.0000000180025095e-35 2.5000000000000004 inf inf 1.0000000180025095e-35 3.5000000000000004 4.5000000000000009 1.0000000180025095e-35 8.0000000000000018\ndecision_type=10 10 8 2 8 8 8 8 8 2 10 8 2 8\nleft_child=1 3 5 6 12 -2 -1 -3 -7 11 -6 -10 13 -4\nright_child=2 7 4 -5 10 8 -8 -9 9 -11 -12 -13 -14 -15\nleaf_value=0.0050764621171473399 -0.00052650565943777503 0.01268782645968564 -0.0028342923576214814 -0.0011705464693001512 0.0050556294149119527 0.0051485514339620359 -0.0028942879974711384 0.0021849681712896832 0.010058552936602795 0.010106539136079574 0.00087197349475086013 0.0059500362701200918 0.0042451629641503544 0.0021757202553148633\nleaf_weight=45 53 75 154 3077 1076 234 4357 27 116 398 93 387 112 321\nleaf_count=45 53 75 154 3077 1076 234 4357 27 116 398 93 387 112 321\ninternal_value=0 -0.00197142 0.00509076 -0.00213673 0.00357305 0.00732502 -0.00281054 0.0100044 0.0076962 0.00834587 0.0047281 0.00692553 0.00126015 0.000538375\ninternal_weight=0 7581 2944 7479 1756 1188 4402 102 1135 901 1169 503 587 475\ninternal_count=10525 7581 2944 7479 1756 1188 4402 102 1135 901 1169 503 587 475\nis_linear=0\nshrinkage=0.05\n\n\nTree=46\nnum_leaves=15\nnum_cat=0\nsplit_feature=7 11 2 1 7 2 5 5 1 5 2 4 3 2\nsplit_gain=41.7835 5.88806 3.90236 2.17613 1.83328 1.8246 1.42089 1.37169 1.01634 0.804732 0.5717 0.487624 1.03267 1.51127\nthreshold=1.0000000180025095e-35 1.0000000180025095e-35 2.5000000000000004 167.50000000000003 0.70000000000000007 inf inf 1.0000000180025095e-35 153.50000000000003 inf 3.5000000000000004 1.0000000180025095e-35 8.0000000000000018 3.5000000000000004\ndecision_type=10 2 8 10 10 8 8 8 8 8 10 2 8 10\nleft_child=1 3 7 5 11 -1 8 -2 -7 -3 -6 12 -4 -14\nright_child=2 9 4 -5 10 6 -8 -9 -10 -11 -12 -13 13 -15\nleaf_value=0.005281803458138383 -0.00048918899630842974 0.012560441840626624 -0.0027978367662907025 0.0031373766689815072 0.0050242906193988142 -0.0068539998727771964 -0.0029208543391783092 0.007643342959175313 -0.0013176968477292765 0.0021749911703682085 0.00086139264757778902 0.0042173323535567636 0.0031615918510041205 -0.0096082739873475879\nleaf_weight=78 53 75 154 190 1076 85 4310 1135 2816 27 93 112 297 24\nleaf_count=78 53 75 154 190 1076 85 4310 1135 2816 27 93 112 297 24\ninternal_value=0 -0.00195874 0.00505888 -0.00212255 0.00355263 -0.00226076 -0.00234376 0.00727622 -0.00148394 0.0099077 0.0046984 0.00125823 0.000542611 0.00216443\ninternal_weight=0 7581 2944 7479 1756 7289 7211 1188 2901 102 1169 587 475 321\ninternal_count=10525 7581 2944 7479 1756 7289 7211 1188 2901 102 1169 587 475 321\nis_linear=0\nshrinkage=0.05\n\n\nTree=47\nnum_leaves=15\nnum_cat=0\nsplit_feature=2 4 0 11 6 1 0 0 4 3 0 0 0 1\nsplit_gain=32.3572 6.36391 4.53429 1.8971 1.44965 1.23434 1.15392 0.957304 0.927055 0.889463 0.821063 0.703773 0.578125 0.573711\nthreshold=3.5000000000000004 1.0000000180025095e-35 3.5205000000000006 1.0000000180025095e-35 inf 160.50000000000003 3.9545000000000008 3.0050000000000003 1.0000000180025095e-35 8.0000000000000018 1.0000000180025095e-35 3.5450000000000004 3.0900000000000003 163.50000000000003\ndecision_type=8 2 8 2 8 10 10 8 2 10 10 8 10 8\nleft_child=4 2 5 6 -1 7 11 -2 -6 -3 -10 -4 -9 -8\nright_child=1 9 3 -5 8 -7 13 12 10 -11 -12 -13 -14 -15\nleaf_value=0.0036976101095500128 -0.0067463293595536938 0.0051920880037342222 0.0049388386632772127 0.0024606412548255092 0.0062819600513126976 0.0028956686921875127 -0.0031692998793173884 0.0016083741474403248 0.009643404528392888 -0.0042811454018447858 0.00046442622015672747 -0.0013167664976094992 -0.0037931380673648391 0.0025456620696892598\nleaf_weight=332 303 424 44 391 717 62 50 50 474 25 27 6227 1105 294\nleaf_count=332 303 424 44 391 717 62 50 50 474 25 27 6227 1105 294\ninternal_value=0 -0.00114761 -0.00145377 -0.000915465 0.00667335 -0.00392942 -0.00111612 -0.00422486 0.00747668 0.00464517 0.0091606 -0.0012713 -0.00355379 0.00169373\ninternal_weight=0 8975 8526 7006 1550 1520 6615 1458 1218 449 501 6271 1155 344\ninternal_count=10525 8975 8526 7006 1550 1520 6615 1458 1218 449 501 6271 1155 344\nis_linear=0\nshrinkage=0.05\n\n\nTree=48\nnum_leaves=15\nnum_cat=0\nsplit_feature=7 11 2 0 5 7 0 5 2 1 1 12 0 5\nsplit_gain=40.8472 5.73717 3.77832 2.942 2.4139 1.79904 1.37028 1.33726 1.24796 1.00443 0.807015 0.783515 0.780194 0.77114\nthreshold=1.0000000180025095e-35 1.0000000180025095e-35 2.5000000000000004 3.8050000000000002 inf 0.70000000000000007 2.6050000000000004 1.0000000180025095e-35 2.5000000000000004 168.50000000000003 162.50000000000003 1.0000000180025095e-35 3.5550000000000002 1.0000000180025095e-35\ndecision_type=10 2 8 10 8 10 8 8 8 10 10 2 10 8\nleft_child=1 3 7 4 9 -4 -6 -2 -8 -1 13 -3 -10 -5\nright_child=2 11 5 10 6 -7 8 -9 12 -11 -12 -13 -14 -15\nleaf_value=-0.0015185702171002793 -0.00048200054512234506 0.0021440503373171297 0.0012470921211129907 -0.0049262166400621454 -0.011952290903737377 0.0046551101258031627 0.004941857941709385 0.0075467448762667425 -0.0037430032158770176 0.0045344337797232183 0.0038221727216899322 0.012394788654077815 -0.0020319690383077795 0.00028021274847217097\nleaf_weight=2673 53 27 587 77 45 1169 45 1135 2719 69 146 75 908 797\nleaf_count=2673 53 27 587 77 45 1169 45 1135 2719 69 146 75 908 797\ninternal_value=0 -0.00193623 0.00500232 -0.00209793 -0.00249207 0.00352007 -0.00332316 0.00718425 -0.00321282 -0.00136283 0.000392972 0.00977706 -0.00331671 -0.000177869\ninternal_weight=0 7581 2944 7479 6459 1756 3717 1188 3672 2742 1020 102 3627 874\ninternal_count=10525 7581 2944 7479 6459 1756 3717 1188 3672 2742 1020 102 3627 874\nis_linear=0\nshrinkage=0.05\n\n\nTree=49\nnum_leaves=15\nnum_cat=0\nsplit_feature=7 3 0 12 7 0 10 10 0 0 0 0 0 0\nsplit_gain=40.3326 5.63594 2.82707 2.35361 1.67959 1.3489 1.09456 0.826878 0.779303 0.729422 0.737653 0.727551 0.694721 0.822332\nthreshold=1.0000000180025095e-35 4.5000000000000009 3.8050000000000002 1.0000000180025095e-35 0.70000000000000007 2.6050000000000004 1.0000000180025095e-35 1.0000000180025095e-35 3.8450000000000002 3.5550000000000002 3.7705000000000006 3.9545000000000008 3.7150000000000003 3.1550000000000007\ndecision_type=10 10 10 2 10 8 2 2 8 10 10 10 8 8\nleft_child=1 2 3 5 6 -1 -2 9 -4 -7 -11 -10 13 -5\nright_child=4 -3 8 12 -6 7 -8 -9 11 10 -12 -13 -14 -15\nleaf_value=-0.011828907837395042 0.001476431354576913 0.011439358432383032 0.0040292390271922454 -0.0060746747702974512 0.0057370678914295155 -0.0036771917151775437 0.0051070632625447865 0.0021567869602170868 -0.0012722287289873917 -0.0013894264080544548 -0.0053044789404575153 0.0016556721143750853 -0.0016377171979106008 0.0016158978107274589\nleaf_weight=45 478 77 127 38 2091 2707 375 70 549 764 144 344 2407 309\nleaf_count=45 478 77 127 38 2091 2707 375 70 549 764 144 344 2407 309\ninternal_value=0 -0.00192377 -0.00206306 -0.00244803 0.00497094 -0.00326746 0.00308251 -0.00315837 0.000379259 -0.00326325 -0.00202097 -0.000138164 -0.00133561 0.000744299\ninternal_weight=0 7581 7504 6484 2944 3730 853 3685 1020 3615 908 893 2754 347\ninternal_count=10525 7581 7504 6484 2944 3730 853 3685 1020 3615 908 893 2754 347\nis_linear=0\nshrinkage=0.05\n\n\nTree=50\nnum_leaves=15\nnum_cat=0\nsplit_feature=7 11 2 1 2 7 12 6 1 12 4 2 1 1\nsplit_gain=39.8293 5.54645 3.6977 2.06938 1.74122 1.74013 1.32484 1.13784 1.00201 0.756424 0.753496 0.575012 0.472099 0.958098\nthreshold=1.0000000180025095e-35 1.0000000180025095e-35 2.5000000000000004 167.50000000000003 1.0000000180025095e-35 0.70000000000000007 1.0000000180025095e-35 inf 153.50000000000003 1.0000000180025095e-35 1.0000000180025095e-35 3.5000000000000004 165.50000000000003 163.50000000000003\ndecision_type=10 2 8 10 10 8 2 8 8 2 2 10 8 10\nleft_child=1 3 7 4 6 -4 -1 -2 -8 -3 -9 -7 13 -10\nright_child=2 9 5 -5 -6 11 8 10 12 -11 -12 -13 -14 -15\nleaf_value=-0.0028437277378011803 0.0041317159442314415 0.0021016881090082681 0.0012379166490693973 0.0030584781615750462 0.0051624510084239345 0.0049166365893598511 -0.0067879376874299194 0.0065893944891231536 -0.001133981885757972 0.012177563173597524 0.0095629567378732599 0.00074514690259343838 -0.0015239820652800718 0.0049948651856531277\nleaf_weight=4310 263 27 587 190 78 1076 85 512 236 75 413 93 2494 86\nleaf_count=4310 263 27 587 190 78 1076 85 512 236 75 413 93 2494 86\ninternal_value=0 -0.00191154 0.00494002 -0.00207054 -0.00220532 0.00347362 -0.00228641 0.00709857 -0.001456 0.00960526 0.00793134 0.00458997 -0.00129092 0.000497831\ninternal_weight=0 7581 2944 7479 7289 1756 7211 1188 2901 102 925 1169 2816 322\ninternal_count=10525 7581 2944 7479 7289 1756 7211 1188 2901 102 925 1169 2816 322\nis_linear=0\nshrinkage=0.05\n\n\nTree=51\nnum_leaves=15\nnum_cat=0\nsplit_feature=7 3 2 0 0 2 7 1 6 1 4 0 0 0\nsplit_gain=39.3349 5.44785 3.64099 2.81056 2.09197 1.73798 1.71215 1.50301 1.10681 0.774118 0.739035 0.637792 0.605306 0.862991\nthreshold=1.0000000180025095e-35 1.0000000180025095e-35 2.5000000000000004 3.8050000000000002 3.0050000000000003 inf 0.70000000000000007 168.50000000000003 inf 162.50000000000003 1.0000000180025095e-35 3.4950000000000006 3.7705000000000006 3.5205000000000006\ndecision_type=10 10 8 10 8 8 10 10 8 10 2 10 10 10\nleft_child=1 3 8 4 -1 -6 -4 12 -2 -5 -10 -12 13 -7\nright_child=2 -3 6 9 5 7 -8 -9 10 -11 11 -13 -14 -15\nleaf_value=-0.0064671596203171276 0.0041241677928861359 0.0095144800321255163 0.0012365382397026706 -0.00018143148753703669 0.0051143532127005814 -0.0026113870977679397 0.0045616964540067398 0.0043720551609565056 0.0065435500137895957 0.0037362218452722997 0.0099324187432840855 0.00048650669684412108 -0.0051642213979843817 -0.00098722754870340414\nleaf_weight=308 263 102 587 874 78 4793 1169 81 512 146 393 20 198 1001\nleaf_count=308 263 102 587 874 78 4793 1169 81 512 146 393 20 198 1001\ninternal_value=0 -0.0018994 0.0049095 -0.00205698 -0.00244221 -0.00223884 0.00345434 -0.00233493 0.00705148 0.000377544 0.00787304 0.00948935 -0.00242714 -0.00233187\ninternal_weight=0 7581 2944 7479 6459 6151 1756 6073 1188 1020 925 413 5992 5794\ninternal_count=10525 7581 2944 7479 6459 6151 1756 6073 1188 1020 925 413 5992 5794\nis_linear=0\nshrinkage=0.05\n\n\nTree=52\nnum_leaves=15\nnum_cat=0\nsplit_feature=7 3 2 0 12 7 5 0 2 1 0 5 0 0\nsplit_gain=38.8467 5.35157 3.58345 2.74959 2.27157 1.6842 1.30006 1.29577 1.18054 0.942233 0.760105 0.737564 0.728831 0.710777\nthreshold=1.0000000180025095e-35 1.0000000180025095e-35 2.5000000000000004 3.8050000000000002 1.0000000180025095e-35 0.70000000000000007 1.0000000180025095e-35 2.6050000000000004 2.5000000000000004 168.50000000000003 3.8450000000000002 inf 3.5550000000000002 3.9545000000000008\ndecision_type=10 10 8 10 2 8 8 8 8 10 10 8 10 10\nleft_child=1 3 6 4 7 -4 -2 -1 -9 -6 -5 -3 -10 -12\nright_child=2 11 5 10 9 -7 -8 8 12 -11 13 -13 -14 -15\nleaf_value=-0.011623160713599258 -0.00055298996456588738 0.011964770768762125 0.0012357208177516752 0.0039692334473099928 -0.0014799057644899762 0.0045337947039347792 0.0073616657496818052 0.0048066842361190942 -0.0036366644553485999 0.0043820970571608608 -0.0012675025683139374 0.0020166155124707072 -0.0019822973155962371 0.0016263566178982185\nleaf_weight=45 53 75 587 127 2673 1169 1135 45 2719 69 549 27 908 344\nleaf_count=45 53 75 587 127 2673 1169 1135 45 2719 69 549 27 908 344\ninternal_value=0 -0.00188735 0.00487916 -0.00204354 -0.00242457 0.00343548 0.0070042 -0.00323082 -0.00312348 -0.00132903 0.000364377 0.00942512 -0.00322454 -0.00014657\ninternal_weight=0 7581 2944 7479 6459 1756 1188 3717 3672 2742 1020 102 3627 893\ninternal_count=10525 7581 2944 7479 6459 1756 1188 3717 3672 2742 1020 102 3627 893\nis_linear=0\nshrinkage=0.05\n\n\nTree=53\nnum_leaves=15\nnum_cat=0\nsplit_feature=7 11 0 5 7 6 0 10 10 0 0 5 0 0\nsplit_gain=38.3579 5.25704 2.68974 2.2223 1.56908 1.60026 1.26676 1.06376 1.01081 0.742074 0.733706 0.72128 0.695564 0.680288\nthreshold=1.0000000180025095e-35 1.0000000180025095e-35 3.8050000000000002 inf 0.70000000000000007 inf 2.6050000000000004 1.0000000180025095e-35 1.0000000180025095e-35 3.8450000000000002 3.4850000000000008 inf 3.9545000000000008 3.7150000000000003\ndecision_type=10 2 10 8 8 8 8 2 2 10 10 8 10 8\nleft_child=1 2 3 13 8 -6 -5 10 -2 -4 -8 -3 -11 -1\nright_child=4 11 9 6 5 -7 7 -9 -10 12 -12 -13 -14 -15\nleaf_value=0.00073418617408407924 0.0014783625405242614 0.011848578051926434 0.0039134323887201799 -0.011502897284988814 0.0024493570836936133 0.0062071965661973918 -0.0037206125733740543 0.003026156165011209 0.0049687784044475094 -0.0012621920227220817 -0.0021870233317665033 0.0020071669567694123 0.0016004525715664405 -0.0016235970603269594\nleaf_weight=347 478 75 127 45 346 1745 2413 68 375 549 1191 27 344 2395\nleaf_count=347 478 75 127 45 346 1745 2413 68 375 549 1191 27 344 2395\ninternal_value=0 -0.00187522 -0.00203003 -0.00240688 0.00484859 0.00558924 -0.00320436 -0.0030982 0.00302271 0.000351489 -0.00321595 0.00933682 -0.000153299 -0.00132324\ninternal_weight=0 7581 7479 6459 2944 2091 3717 3672 853 1020 3604 102 893 2742\ninternal_count=10525 7581 7479 6459 2944 2091 3717 3672 853 1020 3604 102 893 2742\nis_linear=0\nshrinkage=0.05\n\n\nTree=54\nnum_leaves=15\nnum_cat=0\nsplit_feature=2 4 0 3 6 1 0 4 3 0 12 3 0 0\nsplit_gain=29.5108 5.92391 4.08069 1.64878 1.29444 1.14037 1.01954 0.883203 0.879677 0.867531 0.816244 0.816695 0.801739 0.693004\nthreshold=3.5000000000000004 1.0000000180025095e-35 3.5205000000000006 1.0000000180025095e-35 inf 160.50000000000003 3.9545000000000008 1.0000000180025095e-35 8.0000000000000018 3.0050000000000003 1.0000000180025095e-35 4.5000000000000009 1.0000000180025095e-35 3.5450000000000004\ndecision_type=8 2 8 10 8 10 10 2 10 10 2 10 10 8\nleft_child=4 2 5 6 -1 9 13 -6 -3 -2 -5 -12 -9 -4\nright_child=1 8 3 10 7 -7 -8 12 -10 -11 11 -13 -14 -15\nleaf_value=0.0035602938195803758 -0.0064237836337669336 0.0050385985425627743 0.0049507833215016832 0.00032824889227124404 0.0059684965474385765 0.0028198862366932732 0.0015744786750933205 0.0092536262308337783 -0.0043820656438012954 -0.0033832970326071474 0.0011664308195433301 0.0083789141984497283 0.00019702949410162977 -0.0012572722043740546\nleaf_weight=332 303 424 44 230 717 62 344 474 25 1155 77 84 27 6227\nleaf_count=332 303 424 44 230 717 62 344 474 25 1155 77 84 27 6227\ninternal_value=0 -0.00109448 -0.00138989 -0.000879163 0.00637456 -0.00373851 -0.00106625 0.00713402 0.00449438 -0.00402256 0.00226789 0.00498882 0.00877687 -0.00121213\ninternal_weight=0 8975 8526 7006 1550 1520 6615 1218 449 1458 391 161 501 6271\ninternal_count=10525 8975 8526 7006 1550 1520 6615 1218 449 1458 391 161 501 6271\nis_linear=0\nshrinkage=0.05\n\n\nTree=55\nnum_leaves=15\nnum_cat=0\nsplit_feature=7 2 2 12 7 5 5 1 1 2 6 4 6 4\nsplit_gain=37.5046 3.45037 2.85652 2.16686 1.62222 1.26406 1.18379 1.17397 0.985058 0.580815 0.566915 0.773615 0.463604 0.458392\nthreshold=1.0000000180025095e-35 2.5000000000000004 3.5000000000000004 1.0000000180025095e-35 0.70000000000000007 1.0000000180025095e-35 inf 153.50000000000003 167.50000000000003 3.5000000000000004 inf 1.0000000180025095e-35 inf 1.0000000180025095e-35\ndecision_type=10 8 8 2 8 8 8 8 10 10 8 2 8 2\nleft_child=2 5 6 -4 13 -2 -1 -5 -9 12 -7 -12 -6 -3\nright_child=1 4 3 7 9 10 -8 8 -10 -11 11 -13 -14 -15\nleaf_value=0.015333898374554773 -0.00057042151943514766 0.00052466117488485936 -0.0026809051988675534 -0.0067219655733839062 0.0018392905493782971 0.0049403922087276359 0.0028891799850743649 -0.0010055639284778822 0.0029387026099048433 0.00059605144234099424 0.0064538306404648476 0.009504908008489325 0.0051635603295290024 0.0040880811314201442\nleaf_weight=28 53 475 4367 85 125 234 62 2873 166 93 503 398 951 112\nleaf_count=28 53 475 4367 85 125 234 62 2873 166 93 503 398 951 112\ninternal_value=0 0.00479476 -0.00185384 -0.00196109 0.00337802 0.00688005 0.00694177 -0.000952741 -0.000787575 0.00445597 0.00723255 0.00781617 0.00478409 0.00121886\ninternal_weight=0 2944 7581 7491 1756 1188 90 3124 3039 1169 1135 901 1076 587\ninternal_count=10525 2944 7581 7491 1756 1188 90 3124 3039 1169 1135 901 1076 587\nis_linear=0\nshrinkage=0.05\n\n\nTree=56\nnum_leaves=15\nnum_cat=0\nsplit_feature=7 11 0 12 7 6 0 10 10 1 1 5 0 0\nsplit_gain=37.0409 5.07414 2.60141 2.11855 1.50594 1.5212 1.22456 1.01457 0.949316 0.907091 0.753009 0.729658 0.702443 0.70349\nthreshold=1.0000000180025095e-35 1.0000000180025095e-35 3.8050000000000002 1.0000000180025095e-35 0.70000000000000007 inf 2.6050000000000004 1.0000000180025095e-35 1.0000000180025095e-35 168.50000000000003 163.50000000000003 1.0000000180025095e-35 3.5550000000000002 3.7705000000000006\ndecision_type=10 2 10 2 8 8 8 2 2 10 10 8 10 10\nleft_child=1 2 3 6 8 -6 -1 12 -2 -5 11 -4 -8 -14\nright_child=4 -3 10 9 5 -7 7 -9 -10 -11 -12 -13 13 -15\nleaf_value=-0.01130315127252921 0.0014787798756299517 0.0091729979645824456 -0.0045209702202034519 -0.0014547554407076367 0.0024286329098532327 0.0060935301369530268 -0.0035617430454986014 0.0029410579436825487 0.004862505649620181 0.004296553732212857 0.0038887232396888679 0.0002969023375790862 -0.001318870789246397 -0.0051421194867147108\nleaf_weight=45 478 102 86 2673 346 1745 2696 68 375 69 130 804 764 144\nleaf_count=45 478 102 86 2673 346 1745 2696 68 375 69 130 804 764 144\ninternal_value=0 -0.00184211 -0.00199422 -0.00236483 0.00476526 0.00549094 -0.00314351 -0.0030391 0.00297616 -0.00130669 0.000347801 -0.000167585 -0.00315411 -0.00193569\ninternal_weight=0 7581 7479 6459 2944 2091 3717 3672 853 2742 1020 890 3604 908\ninternal_count=10525 7581 7479 6459 2944 2091 3717 3672 853 2742 1020 890 3604 908\nis_linear=0\nshrinkage=0.05\n\n\nTree=57\nnum_leaves=15\nnum_cat=0\nsplit_feature=7 3 2 0 5 7 5 0 1 2 1 5 1 0\nsplit_gain=36.5858 4.99539 3.37854 2.49983 2.05878 1.56865 1.23336 1.2054 0.881787 0.751898 0.739657 0.726119 0.657599 0.80404\nthreshold=1.0000000180025095e-35 4.5000000000000009 2.5000000000000004 3.8050000000000002 inf 0.70000000000000007 1.0000000180025095e-35 2.6050000000000004 168.50000000000003 3.5000000000000004 162.50000000000003 1.0000000180025095e-35 155.50000000000003 3.8450000000000002\ndecision_type=10 10 8 10 8 8 8 8 10 8 10 8 8 10\nleft_child=1 3 6 4 8 -4 -2 -6 -1 -9 11 -5 -13 -14\nright_child=2 -3 5 10 7 -7 -8 9 -10 -11 -12 12 13 -15\nleaf_value=-0.0014284147673910366 -0.00055882215001530893 0.010749646391744774 0.0012106765230329448 -0.0048188919407313683 -0.011185676626004441 0.0043941913266550923 0.0071477950584644262 0.0024416923824522613 0.0042416029819827639 -0.0030803859929107759 0.0036180494350369222 -0.0059246900275891044 0.0048235057236855824 -4.4248073704796458e-05\nleaf_weight=2685 53 77 587 77 45 1169 1135 61 69 3624 146 40 96 661\nleaf_count=2685 53 77 587 77 45 1169 1135 61 69 3624 146 40 96 661\ninternal_value=0 -0.00183055 0.0047361 -0.00196172 -0.00232373 0.00333414 0.0067996 -0.00309021 -0.00128305 -0.00298698 0.000334628 -0.000211655 0.000232676 0.000572016\ninternal_weight=0 7581 2944 7504 6484 1756 1188 3730 2754 3685 1020 874 797 757\ninternal_count=10525 7581 2944 7504 6484 1756 1188 3730 2754 3685 1020 874 797 757\nis_linear=0\nshrinkage=0.05\n\n\nTree=58\nnum_leaves=15\nnum_cat=0\nsplit_feature=2 4 0 11 1 0 5 0 12 0 1 5 1 0\nsplit_gain=28.0087 5.65957 3.85622 1.54431 1.09156 0.974229 0.854297 0.830452 0.781203 0.683028 0.635489 0.563459 1.00331 0.751363\nthreshold=3.5000000000000004 1.0000000180025095e-35 3.5205000000000006 1.0000000180025095e-35 160.50000000000003 3.9545000000000008 1.0000000180025095e-35 3.0050000000000003 1.0000000180025095e-35 3.5450000000000004 169.50000000000003 1.0000000180025095e-35 165.50000000000003 3.9650000000000003\ndecision_type=8 2 8 2 10 10 10 10 2 8 10 10 8 10\nleft_child=6 2 4 5 7 9 -1 -2 -5 -4 -8 12 -7 -14\nright_child=1 -3 3 8 -6 11 10 -9 -10 -11 -12 -13 13 -15\nleaf_value=0.0054247785507224068 -0.0062647844297903975 0.0043973133004639158 0.0049372128367957359 0.00029017267166213037 0.0027782809026583779 -0.0088529643836963191 0.0085087727287427497 -0.0032896448921819286 0.0048496524927704645 -0.0012261419440974934 0.00024998610408874603 0.0054162511425214022 0.0083727568630953472 0.00033589632066322137\nleaf_weight=1091 303 449 44 230 62 25 433 1155 161 6227 26 73 33 213\nleaf_count=1091 303 449 44 230 62 25 433 1155 161 6227 26 73 33 213\ninternal_value=0 -0.00106538 -0.00135413 -0.000857626 -0.00363727 -0.0010387 0.0062111 -0.00391523 0.00218794 -0.00118132 0.00805338 0.00154255 0.000464627 0.00146379\ninternal_weight=0 8975 8526 7006 1520 6615 1550 1458 391 6271 459 344 271 246\ninternal_count=10525 8975 8526 7006 1520 6615 1550 1458 391 6271 459 344 271 246\nis_linear=0\nshrinkage=0.05\n\n\nTree=59\nnum_leaves=15\nnum_cat=0\nsplit_feature=7 11 2 1 2 7 5 12 1 5 2 6 4 3\nsplit_gain=35.7672 4.86116 3.27455 1.82443 1.56116 1.53808 1.20363 1.15 0.971169 0.669043 0.582885 0.527524 0.761515 0.556474\nthreshold=1.0000000180025095e-35 1.0000000180025095e-35 2.5000000000000004 167.50000000000003 1.0000000180025095e-35 0.70000000000000007 1.0000000180025095e-35 1.0000000180025095e-35 153.50000000000003 inf 3.5000000000000004 inf 1.0000000180025095e-35 4.5000000000000009\ndecision_type=10 2 8 10 10 8 8 2 8 8 10 8 2 8\nleft_child=1 3 6 4 7 -4 -2 -1 -9 -3 -7 -8 13 -13\nright_child=2 9 5 -5 -6 10 11 8 -10 -11 -12 12 -14 -15\nleaf_value=-0.002681158648355469 -0.00055331310719250004 0.01139112562232792 0.0012001200920117338 0.0028567789849792183 0.0048904226081037915 0.0046811559468535229 0.0048441073213880111 -0.0066366583079417582 -0.0012253039865895408 0.0019058334919323399 0.00048866231487434345 0.0093806617599993068 0.0092969066653173175 0.0053053099934924665\nleaf_weight=4310 53 75 587 190 78 1076 234 85 2816 27 93 116 398 387\nleaf_count=4310 53 75 587 190 78 1076 234 85 2816 27 93 116 398 387\ninternal_value=0 -0.00180953 0.00468325 -0.00195841 -0.00208499 0.00330291 0.00671484 -0.0021618 -0.00138781 0.00897174 0.0043526 0.00705883 0.00762247 0.00627182\ninternal_weight=0 7581 2944 7479 7289 1756 1188 7211 2901 102 1169 1135 901 503\ninternal_count=10525 7581 2944 7479 7289 1756 1188 7211 2901 102 1169 1135 901 503\nis_linear=0\nshrinkage=0.05\n\n\nTree=60\nnum_leaves=15\nnum_cat=0\nsplit_feature=7 3 0 5 7 0 10 1 0 10 0 1 0 1\nsplit_gain=35.3284 4.77782 2.41659 1.97033 1.42361 1.16492 0.872162 0.849094 0.714907 0.665218 0.650607 0.634054 0.832606 0.951465\nthreshold=1.0000000180025095e-35 4.5000000000000009 3.8050000000000002 inf 0.70000000000000007 2.6050000000000004 1.0000000180025095e-35 168.50000000000003 3.8450000000000002 1.0000000180025095e-35 3.9545000000000008 154.50000000000003 3.7015000000000007 165.50000000000003\ndecision_type=10 10 10 8 8 8 2 10 10 2 10 8 8 10\nleft_child=1 2 3 7 6 -5 -2 11 -4 -7 -10 -1 -13 -14\nright_child=4 -3 8 5 -6 9 -8 -9 10 -11 -12 12 13 -15\nleaf_value=-0.0059291101000981143 0.0014784584606778747 0.010504798824580953 0.0038275839828724812 -0.010991160235976747 0.0053603434744883844 -0.003024811250062581 0.004723345056572046 0.0041566718374061616 -0.0012366405604939846 0.0018316831007289152 0.0015317733803165362 0.0013533245088956051 -0.0014178049622427017 -0.0081582406367521256\nleaf_weight=75 478 77 127 45 2091 3615 375 69 549 70 344 268 2289 53\nleaf_count=75 478 77 127 45 2091 3615 375 69 549 70 344 268 2289 53\ninternal_value=0 -0.00179815 -0.00192644 -0.00228237 0.00465467 -0.00303223 0.00291471 -0.00126422 0.000331283 -0.00293073 -0.000164083 -0.00140688 -0.0012728 -0.00157589\ninternal_weight=0 7581 7504 6484 2944 3730 853 2754 1020 3685 893 2685 2610 2342\ninternal_count=10525 7581 7504 6484 2944 3730 853 2754 1020 3685 893 2685 2610 2342\nis_linear=0\nshrinkage=0.05\n\n\nTree=61\nnum_leaves=15\nnum_cat=0\nsplit_feature=7 3 2 0 12 7 5 0 2 1 1 5 0 0\nsplit_gain=34.8939 4.70512 3.20603 2.4059 1.93833 1.48903 1.17817 1.13066 1.05157 0.836947 0.714639 0.699635 0.648957 0.687525\nthreshold=1.0000000180025095e-35 1.0000000180025095e-35 2.5000000000000004 3.8050000000000002 1.0000000180025095e-35 0.70000000000000007 1.0000000180025095e-35 2.6050000000000004 2.5000000000000004 168.50000000000003 162.50000000000003 1.0000000180025095e-35 3.5550000000000002 3.7705000000000006\ndecision_type=10 10 8 10 2 10 8 8 8 10 10 8 10 8\nleft_child=1 3 6 4 7 -4 -2 -1 -9 -6 11 -5 -10 -14\nright_child=2 -3 5 10 9 -7 -8 8 12 -11 -12 -13 13 -15\nleaf_value=-0.010877066482190959 -0.00055348835374674271 0.0088198080753804572 0.0011910772541045356 -0.0047404514605113206 -0.001419699200236563 0.0042931654025174116 0.0069767579186503425 0.0045478252083327635 -0.0034186608679941874 0.0041038908287635437 0.0035463191450164897 0.0002179407614199013 -0.0012471847642024098 -0.0050261900621728223\nleaf_weight=45 53 102 587 77 2673 1169 1135 45 2719 69 146 797 764 144\nleaf_count=45 53 102 587 77 2673 1169 1135 45 2719 69 146 797 764 144\ninternal_value=0 -0.00178685 0.00462617 -0.00193333 -0.00228975 0.00326031 0.00663642 -0.00303464 -0.00293424 -0.00127743 0.000318776 -0.000218101 -0.00302967 -0.00185687\ninternal_weight=0 7581 2944 7479 6459 1756 1188 3717 3672 2742 1020 874 3627 908\ninternal_count=10525 7581 2944 7479 6459 1756 1188 3717 3672 2742 1020 874 3627 908\nis_linear=0\nshrinkage=0.05\n\n\nTree=62\nnum_leaves=15\nnum_cat=0\nsplit_feature=7 3 2 0 5 7 5 0 2 1 1 5 1 0\nsplit_gain=34.4601 4.62402 3.1587 2.35292 1.89673 1.4654 1.15277 1.10528 1.0351 0.819329 0.701404 0.671265 0.649971 0.785529\nthreshold=1.0000000180025095e-35 1.0000000180025095e-35 2.5000000000000004 3.8050000000000002 inf 0.70000000000000007 1.0000000180025095e-35 2.6050000000000004 2.5000000000000004 168.50000000000003 163.50000000000003 1.0000000180025095e-35 155.50000000000003 3.8450000000000002\ndecision_type=10 10 8 10 8 8 8 8 8 10 10 8 8 10\nleft_child=1 3 6 4 9 -4 -2 -6 -9 -1 11 -5 -13 -14\nright_child=2 -3 5 10 7 -7 -8 8 -10 -11 -12 12 13 -15\nleaf_value=-0.001412492961858614 -0.00051825057926683745 0.0087392890036413675 0.0011888805408802761 -0.0043661223444232912 -0.010764626585614615 0.0042664145473763097 0.0069295889371324623 0.0045121721010039761 -0.0030054327302414998 0.0040523913977264228 0.0037242065771169071 -0.0058681397056681572 0.0047689703681892976 -1.7857923989198134e-05\nleaf_weight=2673 53 102 587 86 45 1169 1135 45 3627 69 130 40 97 667\nleaf_count=2673 53 102 587 86 45 1169 1135 45 3627 69 130 40 97 667\ninternal_value=0 -0.00177548 0.00459755 -0.0019207 -0.00227317 0.00324176 0.00659296 -0.00301004 -0.00291074 -0.00127172 0.00030642 -0.000190815 0.000254455 0.000588797\ninternal_weight=0 7581 2944 7479 6459 1756 1188 3717 3672 2742 1020 890 804 764\ninternal_count=10525 7581 2944 7479 6459 1756 1188 3717 3672 2742 1020 890 804 764\nis_linear=0\nshrinkage=0.05\n\n\nTree=63\nnum_leaves=15\nnum_cat=0\nsplit_feature=2 4 11 1 6 3 4 8 5 3 5 3 1 5\nsplit_gain=26.2318 5.37565 1.92396 1.43227 1.14215 0.870818 0.844807 0.79857 0.740159 0.756886 0.624055 0.837744 0.536761 0.525721\nthreshold=3.5000000000000004 1.0000000180025095e-35 1.0000000180025095e-35 167.50000000000003 inf 8.0000000000000018 1.0000000180025095e-35 1.0000000180025095e-35 inf 4.5000000000000009 1.0000000180025095e-35 8.0000000000000018 154.50000000000003 1.0000000180025095e-35\ndecision_type=8 2 2 10 8 10 2 2 8 8 10 8 8 10\nleft_child=4 2 3 12 -1 -3 10 -8 9 -4 -6 -12 -2 -14\nright_child=1 5 8 -5 6 -7 7 -9 -10 -11 11 -13 13 -15\nleaf_value=0.0033663573391187768 -0.0047627123950129873 0.0048358679497445458 0.00098893432202255978 0.002782421819214878 0.0047202997277440793 -0.004537225182240979 0.0088063627864665116 0 0.00025201352040702887 0.007911832737938598 0.0058080284012939458 0.013611273639354358 -0.0017712188870166031 -0.00083299993181574876\nleaf_weight=332 131 424 77 191 545 25 474 27 231 85 120 52 5760 2051\nleaf_count=332 131 424 77 191 545 25 474 27 231 85 120 52 5760 2051\ninternal_value=0 -0.00102991 -0.00131133 -0.00147686 0.00601197 0.00429395 0.00672565 0.0083309 0.0020965 0.00467825 0.00558698 0.00826109 -0.00158026 -0.00152564\ninternal_weight=0 8975 8526 8133 1550 449 1218 501 393 162 717 172 7942 7811\ninternal_count=10525 8975 8526 8133 1550 449 1218 501 393 162 717 172 7942 7811\nis_linear=0\nshrinkage=0.05\n\n\nTree=64\nnum_leaves=15\nnum_cat=0\nsplit_feature=2 4 0 11 6 1 0 4 0 0 5 0 5 0\nsplit_gain=25.8672 5.29614 3.59336 1.37357 1.11343 1.02386 0.906121 0.830818 0.786833 0.783975 0.716522 0.672832 0.610459 0.555937\nthreshold=3.5000000000000004 1.0000000180025095e-35 3.5205000000000006 1.0000000180025095e-35 inf 160.50000000000003 3.9545000000000008 1.0000000180025095e-35 3.0050000000000003 inf inf 3.5450000000000004 1.0000000180025095e-35 3.0900000000000003\ndecision_type=8 2 8 2 8 10 10 2 10 8 8 8 10 8\nleft_child=4 2 5 6 -1 8 11 12 -2 -9 -5 -4 -6 -10\nright_child=1 -3 3 10 7 -7 -8 9 13 -11 -12 -13 -14 -15\nleaf_value=0.0033573902146821107 -0.0060622538218925281 0.0042618094415611671 0.004942208460381175 0.0045983539224016641 0.0046880688395204628 0.0027061709739590149 0.001495873600300757 0 0.0018964701355443127 0.0087382514229433373 0.00023142894564205738 -0.001175395533537306 0.0081911879577727578 -0.0034011299944226915\nleaf_weight=332 303 449 44 161 545 62 344 27 50 474 230 6227 172 1105\nleaf_count=332 303 449 44 161 545 62 344 27 50 474 230 6227 172 1105\ninternal_value=0 -0.00102251 -0.00130185 -0.000822534 0.00597027 -0.00350583 -0.000993332 0.00667504 -0.00377509 0.00826716 0.00204947 -0.00113089 0.00554563 -0.00316603\ninternal_weight=0 8975 8526 7006 1550 1520 6615 1218 1458 501 391 6271 717 1155\ninternal_count=10525 8975 8526 7006 1550 1520 6615 1218 1458 501 391 6271 717 1155\nis_linear=0\nshrinkage=0.05\n\n\nTree=65\nnum_leaves=15\nnum_cat=0\nsplit_feature=7 11 2 0 12 7 0 2 6 1 0 4 12 0\nsplit_gain=33.3764 4.44834 3.00739 2.2747 1.83084 1.43179 1.06797 0.991196 0.859908 0.788978 0.685911 0.673251 0.629161 0.622421\nthreshold=1.0000000180025095e-35 1.0000000180025095e-35 2.5000000000000004 3.8050000000000002 1.0000000180025095e-35 0.70000000000000007 2.6050000000000004 2.5000000000000004 inf 168.50000000000003 3.8450000000000002 1.0000000180025095e-35 1.0000000180025095e-35 3.9545000000000008\ndecision_type=10 2 8 10 2 10 8 8 8 10 10 2 2 10\nleft_child=1 3 8 4 6 -4 -1 -8 -2 -6 -5 -10 -3 -12\nright_child=2 12 5 10 9 -7 7 -9 11 -11 13 -13 -14 -15\nleaf_value=-0.010582975513142223 0.0038840376713852828 0.0017159666075172238 0.0011728574030542816 0.0037255167679927145 -0.0013899085481512954 0.0042150367277521816 0.0044007299496558834 -0.0029547152954718238 0.0059307973621488628 0.0039724421925163627 -0.0012336136326343034 0.0087390180047209418 0.01091147647600443 0.0014739344837564187\nleaf_weight=45 263 27 587 127 2673 1169 45 3627 512 69 549 413 75 344\nleaf_count=45 263 27 587 127 2673 1169 45 3627 512 69 549 413 75 344\ninternal_value=0 -0.00174669 0.00452532 -0.00188914 -0.0022357 0.00320218 -0.00295968 -0.00286204 0.00647253 -0.00125175 0.000300574 0.00719811 0.00856621 -0.000184542\ninternal_weight=0 7581 2944 7479 6459 1756 3717 3672 1188 2742 1020 925 102 893\ninternal_count=10525 7581 2944 7479 6459 1756 3717 3672 1188 2742 1020 925 102 893\nis_linear=0\nshrinkage=0.05\n\n\nTree=66\nnum_leaves=15\nnum_cat=0\nsplit_feature=7 3 2 0 5 7 5 0 1 1 5 2 1 0\nsplit_gain=32.9585 4.3788 2.9635 2.18591 1.7792 1.4092 1.11798 1.05153 0.767283 0.68386 0.658416 0.636686 0.620285 